nelements=1
elements: Al

lmax=6

4 FS parameters:  1.000000 1.000000 1.000000 0.500000
core energy-cutoff parameters: 100000.000000000000000000 250.000000000000000000

radbasename=ChebPow
nradbase=15
nradmax=5
cutoffmax=8.300000
deltaSplineBins=0.001000
core repulsion parameters: 0.000000000000000000 5.000000000000000000
radparameter= 2.000000000000000000
cutoff= 8.300000000000000711
dcut= 0.010000000000000000
crad= -3.280180785673327826 10.289695710555749386 9.506887685577446234 -0.118708750186523576 0.047859474920429891 0.135757584020303912 -0.004888089773853617
 -1.073259553257282617 0.015822432354865006 -0.310846056328348386 0.086516358692430281 -0.863882915174753352 -0.933923088162564752 -0.761613824685390739
 -0.414707097943007641 1.777559818440893613 0.977630083666221839 0.493231084633378669 0.564653118544239607 0.386536350023634567 1.550205653352327628
 0.677506302325034615 0.406260659284812864 0.172360933535298078 0.267371624196432511 -3.385510869180798466 -0.436852298553471519 -0.681371981191970844
 0.909107940497184353 -0.009825119447762971 0.550851791498004340 0.889709709710931218 0.835306089148072251 0.660607721929349800 0.822076919024271713
 2.970885337222152867 -8.439820551245606595 -8.656804716436639069 0.135341590900854486 0.026309438230091204 -0.072388151026889364 0.000555580731059801
 0.727651989375224018 0.115766288447529869 0.183810783730790045 -0.045289224823496149 0.596239009726541314 0.706069030985443269 0.591780561749469247
 -0.293875759517125912 -1.302700060357151468 -0.857056580998501683 -0.430011039351690938 -0.408380739039512164 -0.254870095043932210 -1.256798753558085124
 -0.036373930185932969 -0.023314089649736920 0.021715349772896547 -0.182002127358400406 2.806535785413097894 0.389935309433067645 0.502959661166072602
 -0.536281977647853680 -0.060577545297153181 -0.588905773338228467 -0.863777572118002546 -0.759895201580956137 -0.609025281392956308 -0.761301703896419713
 -2.212543335129106392 5.412258955194196197 7.332178111008841093 -0.105022745402374842 0.011811847929142286 0.031731260403630134 0.000120910188813934
 -0.228410095609628244 0.030895467845862230 -0.088234806922478634 0.110867301147041714 -0.328184768385989589 -0.433288501676801607 -0.363784562753082130
 0.676909729964531581 0.622437543791412806 0.614476231585315391 0.277772454704563521 0.234905945854191944 0.095459619770597276 0.832565020319488092
 -0.624966697448160025 -0.402093736415879588 -0.228000113898397389 0.100093317082436059 -2.013184741565290370 -0.312451555415051208 -0.294427246916493524
 0.277975058990486412 0.169539602334619316 0.625797475267632741 0.773710792895194843 0.608324626928472112 0.531542947733383508 0.628099504350478455
 1.361321572033670213 -3.156617256200215493 -5.938221140558160194 0.023670441118257505 -0.038895261284428072 -0.012119298314767445 0.003668555034160128
 0.004821927475391162 0.032380308198268482 0.056663352635774850 -0.144360995686324434 0.147625412221226215 0.176386686468761072 0.146927012002755736
 -0.236926117176987833 -0.123020175357807404 -0.354041962026461321 -0.104468359663061922 -0.070410442065081930 0.003586585208678963 -0.415650747572084478
 0.715558004275846926 0.540412185140465517 0.345341262938133109 0.008541713280464110 1.173305910923436057 0.211611311091717824 0.128807574433119187
 -0.432688457916314495 -0.287489856448615078 -0.599921332240070049 -0.639929288295513765 -0.433014407427689374 -0.421446246980309969 -0.463585330782724625
 -0.764225843358106283 1.427420846033714552 4.539535159501796535 0.098620861396780099 0.003853530973248627 0.003789093427205962 -0.001878094257852080
 -0.003736594885623108 -0.088761601641416221 -0.020633759159809886 0.061611864648363400 -0.009791195928373677 0.000170356379246066 -0.001591866767016616
 -0.064040398730465825 -0.045180900340044343 0.109689313399341404 0.012638635815327698 -0.018332264986571787 -0.028542274199534118 0.138984776870023169
 -0.245173218409045102 -0.286865620550630807 -0.318203692989678766 -0.074744709569871254 -0.459948914855514479 -0.120850628437253985 -0.038802108807365392
 0.570349818040358669 0.350919366866639215 0.440983323100507307 0.462512150063473682 0.268682128121705832 0.307386691750714480 0.297844419820684714
 0.420732610722687694 -0.194292269515537935 -3.172892275482452451 -0.112740807363106654 0.012318075736414370 -0.000454536538345577 0.000131751628980913
 -0.036226321893323900 0.049860731135939126 -0.009448743046850575 0.070681194839123065 -0.022178371625879240 -0.057258146067455849 -0.047716549886091100
 0.009698904093106543 0.054476331679886629 0.053069591885306036 0.017366093006515617 0.012119018752302995 0.023149871867263413 -0.017314116981902859
 -0.061799922077327769 0.007607473217704351 0.220662762231233933 0.068071115068092700 0.058233223091572230 0.028090145713779116 0.001249745472740873
 -0.263115218065055390 -0.266401569228771506 -0.221215024929677040 -0.242833550061273662 -0.144862531479409778 -0.202913195234468491 -0.166762711232991856
 -0.215258814297969586 -0.355826582806557323 1.974552151421765656 -0.003473832911215178 0.003476601416198053 -0.003098683797843101 0.003752979357964255
 0.024467465221022805 0.005720534177783793 0.016876050891193813 -0.127027731426377022 0.008184972045781499 0.028840504895699667 0.031988139912221318
 0.005803326783506041 -0.008766463453051751 -0.078586884021029882 0.005679809028812047 0.020301946554816364 -0.008761117945094389 -0.017273665895355027
 0.014223396711494106 0.042913641780357288 -0.082648325591111543 -0.044478449584018441 0.051677795147342609 0.021710198038893236 0.005943118497692932
 -0.042961326830381452 0.095616746650896547 0.062936371944802005 0.070280520017618864 0.041528358917366656 0.110708981481349153 0.083642814562744930
 0.063863742953216882 0.407598875691383089 -1.063388906713980120 0.121970141824920456 -0.008692483025535122 0.006988140010520862 -0.003312172324838374
 0.030469644513123451 -0.035516587414124508 -0.016855796633254816 0.085557233885582964 0.010459775104497021 0.021201959193769816 0.001511918434229076
 -0.003057708172711979 -0.009485543178501782 0.058424404737550395 -0.022402027698591336 -0.027462859334049950 0.003721001337352578 0.018628629575856270
 0.014466340189839100 -0.000195734501353725 -0.021296586614826356 0.005739215609213690 -0.032462537474132906 -0.003401809631436229 -0.003088444667899044
 0.043773688869257643 0.009916952358403033 0.001392673185380079 -0.000199648015585646 0.006485344901648088 -0.041619188726542446 -0.025838470246860683
 0.034232677881604279 -0.166666299478778840 0.482946134011482453 -0.123800067174903203 -0.006190666695736666 -0.003667779480715371 -0.005070485305677150
 -0.051414070091228371 0.002140953368566130 0.018801677013470776 -0.013366150924357207 -0.007132699609837087 -0.034019877495226891 -0.014978071405183688
 -0.004559313741588803 0.014752277830709922 -0.040013755707880648 0.007650567759838572 0.009621042707248208 -0.002944806067573063 -0.006646144546919835
 -0.010749256678708406 -0.024212861340329104 0.039511452217553374 0.031486835452090599 -0.001205603761067878 -0.027224460588650377 0.003027192406832606
 0.004987028018846109 -0.032554666940285998 -0.008733260741110886 -0.006737841300987534 -0.004931000737029541 0.003928010261433425 -0.000883752695662642
 -0.064027327739464457 0.057493865053181735 -0.171774858368478972 0.040883659951788297 0.010084904294561547 0.002860662601422161 0.011033814974579286
 0.040349445981556063 -0.000175589555463036 -0.013510890299613946 -0.033268646694506743 -0.001988688019587878 0.010201176202947046 0.006473148773890511
 -0.000017400642553578 -0.007183937953807729 0.017494504847020396 0.017008082536791872 0.005548550047041096 0.004218494327919841 -0.007709246091594538
 -0.005834083426057783 0.008790646710715477 -0.011018212187382935 -0.037260766295427447 0.005599573877027765 0.020806549362694288 -0.003756322142564946
 -0.012694029685651760 0.021960245175225393 0.000262096812828485 0.000032552803284711 -0.004896480143495231 0.003608555851638353 0.006035992529543714
 0.041655399913236670 -0.030827063923838917 0.043089075444581904 0.040189814007135033 0.002978745478858336 0.001168740047150228 -0.005206468060620139
 -0.030712793801661090 0.005908168759117863 -0.000071420753668547 0.039544353187764988 0.005729578270059825 0.017704734924131400 0.006388705040385110
 0.000455631407983325 0.005826610423504209 0.005471970191832844 -0.013199528175901679 -0.011775857430462588 -0.002550215550890401 0.010768670940650562
 -0.000238041971076871 0.006424987581066985 0.000724675158157832 0.017607749954893063 0.001420622967310277 0.013257721867402698 0.004567900963975139
 -0.001840257211646117 -0.016379661195068531 -0.001014940552414509 0.005293702296170944 0.003349209455274654 0.000301833362700419 -0.001554373596914411
 -0.011794747112767229 0.024437417742550177 -0.002978462930871953 -0.063549822689977886 -0.011639777206111796 -0.006348592342726266 -0.005506802767719947
 0.016379010214774590 -0.008206342725761576 0.010446510256798727 -0.026974578289113888 -0.003824587543620658 -0.024474205336187063 -0.010779137979198817
 -0.002654112862929732 0.005695948787570526 -0.013517191441926488 -0.003500045950326621 0.007264491913155814 0.001606832440923105 -0.004151160134421917
 0.004104334946999164 -0.006492314835879515 -0.006801250868402930 0.004024410604788035 -0.009667669541973095 -0.041915379924149419 -0.002723044737016343
 0.004384167705925148 0.010378451843723638 0.005649351206462010 -0.003855815863260833 0.000115521139127447 -0.004146594636239548 -0.001700274929738610
 -0.001244490166126295 0.008875030274370178 -0.002314715723313647 0.044844728177166310 0.006983164808239200 0.006616818282301862 0.010334195512905904
 -0.009684573149190592 -0.003151616154124208 -0.013575123661134933 0.014207928855309547 0.001997457065394623 0.014680301063414617 0.008076617324366811
 -0.004504705934090598 -0.010889795810817842 0.018282809451577554 0.014945585192166103 0.000094557668314696 -0.002267558000279648 0.000226071363219353
 -0.000096996748485215 0.002629363248334522 0.006493865895196794 -0.012088558180467807 0.010223510067076103 0.049435056684942774 0.000121341538254996
 0.001351958448299152 -0.004913290573504182 0.000042793854308696 0.001574582952544586 0.002303812174640153 0.005541603268041669 0.005518345854649154
 0.001894992857120864 0.004192909355919417 -0.002876739505683505 -0.017669267763137712 -0.001082358437929665 -0.000886573518576212 -0.004768035414074156
 0.007377103755838065 -0.002140147328049149 0.009749168040005479 -0.006304151756967273 0.000608925309209543 -0.003880451474360794 -0.003645101465369674
 -0.000891154325746206 0.002280235638201746 -0.011762078225311508 -0.012280015331323720 -0.001890050986051428 0.002927371257988867 -0.000199229188989502
 -0.003422619264748531 0.000339137552022007 -0.002696002261119905 0.007554501924594551 -0.004018552495689194 -0.031742983644019708 0.000174381574543252
 -0.007886273776931222 0.002591883018284045 -0.003187701203863992 -0.000472549413800336 -0.004611291518161759 -0.004594832514836347 -0.003286341503546521
 -0.000382898034817363 0.015208975829799607 0.001706781203053735 0.003062975778027575 -0.000563398936897053 -0.000685970325431379 0.000768537208331384
 -0.002942120228952050 -0.005297318828085479 -0.002924565755135256 0.002112039990751371 0.000674818529613723 0.000075106954616391 0.001344460409593093
 0.000379347088180293 0.003320214740045718 0.003654692653601813 0.004125759855968741 0.000059178830077738 -0.001231717605622818 -0.000344120976125735
 0.000211139887789520 -0.001615124726418785 -0.000713519982183818 -0.002479133856345726 0.000307451494402292 0.010842188402775538 -0.000056616974129529
 0.004938477526625235 -0.002328321681263655 0.002016889881837077 -0.000297076463043221 0.001275923920915649 0.001818198895855814 0.000643060873343468

rankmax=6
ndensitymax=2

num_c_tilde_max=683
num_ms_combinations_max=31
total_basis_size_rank1: 15 
ctilde_basis_func: rank=1 ndens=2 mu0=0 mu=( 0 )
n=( 1 )
l=( 0 )
num_ms=1
< 0 >:  133.489891750174678009  309.355951760038976772 
ctilde_basis_func: rank=1 ndens=2 mu0=0 mu=( 0 )
n=( 2 )
l=( 0 )
num_ms=1
< 0 >:  -96.009414419167995902  -245.705882565571499754 
ctilde_basis_func: rank=1 ndens=2 mu0=0 mu=( 0 )
n=( 3 )
l=( 0 )
num_ms=1
< 0 >:  51.829313993075317057  168.388718632769894157 
ctilde_basis_func: rank=1 ndens=2 mu0=0 mu=( 0 )
n=( 4 )
l=( 0 )
num_ms=1
< 0 >:  -18.532669652971907936  -99.895870247607007286 
ctilde_basis_func: rank=1 ndens=2 mu0=0 mu=( 0 )
n=( 5 )
l=( 0 )
num_ms=1
< 0 >:  2.561531075044208627  50.260867118037751311 
ctilde_basis_func: rank=1 ndens=2 mu0=0 mu=( 0 )
n=( 6 )
l=( 0 )
num_ms=1
< 0 >:  1.380054781684276088  -20.121450951333901713 
ctilde_basis_func: rank=1 ndens=2 mu0=0 mu=( 0 )
n=( 7 )
l=( 0 )
num_ms=1
< 0 >:  -0.880341770821329250  5.244472034163322860 
ctilde_basis_func: rank=1 ndens=2 mu0=0 mu=( 0 )
n=( 8 )
l=( 0 )
num_ms=1
< 0 >:  0.146078968690486366  0.038219750393222986 
ctilde_basis_func: rank=1 ndens=2 mu0=0 mu=( 0 )
n=( 9 )
l=( 0 )
num_ms=1
< 0 >:  -0.027591061236216758  -0.804524549968830494 
ctilde_basis_func: rank=1 ndens=2 mu0=0 mu=( 0 )
n=( 10 )
l=( 0 )
num_ms=1
< 0 >:  0.121553309338975388  0.380719176966170469 
ctilde_basis_func: rank=1 ndens=2 mu0=0 mu=( 0 )
n=( 11 )
l=( 0 )
num_ms=1
< 0 >:  -0.117455957629759286  -0.091353265422994934 
ctilde_basis_func: rank=1 ndens=2 mu0=0 mu=( 0 )
n=( 12 )
l=( 0 )
num_ms=1
< 0 >:  0.059541111165746147  0.008486015654455017 
ctilde_basis_func: rank=1 ndens=2 mu0=0 mu=( 0 )
n=( 13 )
l=( 0 )
num_ms=1
< 0 >:  -0.017090682027571011  -0.009620260117276210 
ctilde_basis_func: rank=1 ndens=2 mu0=0 mu=( 0 )
n=( 14 )
l=( 0 )
num_ms=1
< 0 >:  0.004420889295923798  0.019075602444496499 
ctilde_basis_func: rank=1 ndens=2 mu0=0 mu=( 0 )
n=( 15 )
l=( 0 )
num_ms=1
< 0 >:  -0.000990116117290841  -0.009914190827228705 
total_basis_size: 668 
ctilde_basis_func: rank=2 ndens=2 mu0=0 mu=( 0  0 )
n=( 1  1 )
l=( 0  0 )
num_ms=1
< 0  0 >:  28.071787193588264131  -15.591735682535396990 
ctilde_basis_func: rank=2 ndens=2 mu0=0 mu=( 0  0 )
n=( 1  1 )
l=( 1  1 )
num_ms=2
< 0  0 >:  0.866654909870795187  -0.493033671634854065 
< 1  -1 >:  -1.733309819741590374  0.986067343269708130 
ctilde_basis_func: rank=2 ndens=2 mu0=0 mu=( 0  0 )
n=( 1  1 )
l=( 2  2 )
num_ms=3
< 0  0 >:  1.537104528356200372  -2.723393686938274438 
< 1  -1 >:  -3.074209056712400745  5.446787373876548877 
< 2  -2 >:  3.074209056712400745  -5.446787373876548877 
ctilde_basis_func: rank=2 ndens=2 mu0=0 mu=( 0  0 )
n=( 1  1 )
l=( 3  3 )
num_ms=4
< 0  0 >:  -0.932409463926060278  -7.416473035478245102 
< 1  -1 >:  1.864818927852120556  14.832946070956490203 
< 2  -2 >:  -1.864818927852120556  -14.832946070956490203 
< 3  -3 >:  1.864818927852120778  14.832946070956493756 
ctilde_basis_func: rank=2 ndens=2 mu0=0 mu=( 0  0 )
n=( 1  1 )
l=( 4  4 )
num_ms=5
< 0  0 >:  4.303874074941142602  -8.322447667721945663 
< 1  -1 >:  -8.607748149882286981  16.644895335443894879 
< 2  -2 >:  8.607748149882286981  -16.644895335443894879 
< 3  -3 >:  -8.607748149882285205  16.644895335443891327 
< 4  -4 >:  8.607748149882285205  -16.644895335443891327 
ctilde_basis_func: rank=2 ndens=2 mu0=0 mu=( 0  0 )
n=( 1  1 )
l=( 5  5 )
num_ms=6
< 0  0 >:  4.539830295128364668  -16.375655659068204528 
< 1  -1 >:  -9.079660590256729336  32.751311318136409056 
< 2  -2 >:  9.079660590256729336  -32.751311318136409056 
< 3  -3 >:  -9.079660590256729336  32.751311318136409056 
< 4  -4 >:  9.079660590256731112  -32.751311318136409056 
< 5  -5 >:  -9.079660590256727559  32.751311318136401951 
ctilde_basis_func: rank=2 ndens=2 mu0=0 mu=( 0  0 )
n=( 1  1 )
l=( 6  6 )
num_ms=7
< 0  0 >:  -2.131829847402722855  18.394068297874596851 
< 1  -1 >:  4.263659694805445710  -36.788136595749193702 
< 2  -2 >:  -4.263659694805445710  36.788136595749193702 
< 3  -3 >:  4.263659694805445710  -36.788136595749193702 
< 4  -4 >:  -4.263659694805444822  36.788136595749186597 
< 5  -5 >:  4.263659694805446598  -36.788136595749200808 
< 6  -6 >:  -4.263659694805445710  36.788136595749193702 
ctilde_basis_func: rank=3 ndens=2 mu0=0 mu=( 0  0  0 )
n=( 1  1  1 )
l=( 0  0  0 )
num_ms=1
< 0  0  0 >:  -24.389807083662571330  -141.764558574091552146 
ctilde_basis_func: rank=3 ndens=2 mu0=0 mu=( 0  0  0 )
n=( 1  1  1 )
l=( 1  1  0 )
num_ms=2
< 0  0  0 >:  -1.007583740440706865  21.619278806136804860 
< 1  -1  0 >:  2.015167480881413731  -43.238557612273609720 
ctilde_basis_func: rank=3 ndens=2 mu0=0 mu=( 0  0  0 )
n=( 1  1  1 )
l=( 1  1  2 )
num_ms=4
< -1  -1  2 >:  -0.814855771940323437  -5.347539117183940149 
< -1  0  1 >:  1.152380084056003007  7.562562344842175044 
< -1  1  0 >:  -0.332663475869248493  -2.183123702778978714 
< 0  0  0 >:  -0.332663475869248493  -2.183123702778978714 
ctilde_basis_func: rank=3 ndens=2 mu0=0 mu=( 0  0  0 )
n=( 1  1  1 )
l=( 2  2  0 )
num_ms=3
< 0  0  0 >:  -2.786500239016916680  19.814707188864009169 
< 1  -1  0 >:  5.573000478033833360  -39.629414377728018337 
< 2  -2  0 >:  -5.573000478033833360  39.629414377728018337 
ctilde_basis_func: rank=3 ndens=2 mu0=0 mu=( 0  0  0 )
n=( 1  1  1 )
l=( 2  2  2 )
num_ms=5
< -2  0  2 >:  -4.294205543220423138  -3.799791234052370736 
< -2  1  1 >:  3.506204143840363052  3.102516550842905119 
< -1  -1  2 >:  1.753102071920181526  1.551258275421452559 
< -1  0  1 >:  -2.147102771610211569  -1.899895617026185368 
< 0  0  0 >:  0.715700923870070449  0.633298539008728456 
ctilde_basis_func: rank=3 ndens=2 mu0=0 mu=( 0  0  0 )
n=( 1  1  1 )
l=( 2  2  4 )
num_ms=9
< -2  -2  4 >:  3.285735241188795008  -9.222170702380887874 
< -2  -1  3 >:  -4.646731340456426551  13.042118881826864296 
< -2  0  2 >:  3.041999728823598481  -8.538070999797774618 
< -2  1  1 >:  -1.756299362311073420  4.929457590093382358 
< -2  2  0 >:  0.392720476296709198  -1.102260226365109785 
< -1  -1  2 >:  2.483782377767537852  -6.971305779053054152 
< -1  0  1 >:  -4.302037273237610648  12.074655804418425120 
< -1  1  0 >:  1.570881905186836791  -4.409040905460439141 
< 0  0  0 >:  1.178161428890127649  -3.306780679095329134 
ctilde_basis_func: rank=3 ndens=2 mu0=0 mu=( 0  0  0 )
n=( 1  1  1 )
l=( 2  3  3 )
num_ms=12
< -2  -1  3 >:  -1.151426519115908098  16.005920307963059201 
< -2  0  2 >:  3.256725998819522516  -45.271579155568616670 
< -2  1  1 >:  -1.783782293166995325  24.796265117385608789 
< -1  -2  3 >:  1.820565179362837904  -25.307582110153482802 
< -1  -1  2 >:  -1.410203724071477982  19.603168809080241175 
< -1  0  1 >:  1.029867187135652840  -14.316130340419908507 
< 0  -3  3 >:  -1.820565179362837904  25.307582110153482802 
< 0  -1  1 >:  1.092339107617702476  -15.184549266092087549 
< 0  0  0 >:  -0.728226071745135206  10.123032844061393476 
< 1  -3  2 >:  1.820565179362837904  -25.307582110153482802 
< 1  -2  1 >:  -1.410203724071477982  19.603168809080241175 
< 2  -3  1 >:  -1.151426519115908098  16.005920307963059201 
ctilde_basis_func: rank=3 ndens=2 mu0=0 mu=( 0  0  0 )
n=( 1  1  1 )
l=( 2  4  4 )
num_ms=18
< -2  -2  4 >:  -0.919646314845313784  3.435487305667094482 
< -2  -1  3 >:  1.379469472267970565  -5.153230958500641279 
< -2  0  2 >:  -3.297562757916192133  12.318578144215329928 
< -2  1  1 >:  1.737968173726934129  -6.492460745081765516 
< -1  -3  4 >:  1.720500713580201069  -6.427208227208694780 
< -1  -2  3 >:  -1.625720363800849944  6.073140926293759456 
< -1  -1  2 >:  1.106036173015843449  -4.131776717491303152 
< -1  0  1 >:  -0.777242995836917694  2.903516713450351894 
< 0  -4  4 >:  -1.986663100252944458  7.421500800233434170 
< 0  -3  3 >:  0.496665775063236059  -1.855375200058358320 
< 0  -2  2 >:  0.567618028643698369  -2.120428800066695096 
< 0  -1  1 >:  -1.206188310867859048  4.505911200141727413 
< 0  0  0 >:  0.709522535804622989  -2.650536000083369537 
< 1  -4  3 >:  1.720500713580201069  -6.427208227208694780 
< 1  -3  2 >:  -1.625720363800849944  6.073140926293759456 
< 1  -2  1 >:  1.106036173015843449  -4.131776717491303152 
< 2  -4  2 >:  -0.919646314845313784  3.435487305667094482 
< 2  -3  1 >:  1.379469472267970565  -5.153230958500641279 
ctilde_basis_func: rank=3 ndens=2 mu0=0 mu=( 0  0  0 )
n=( 1  1  1 )
l=( 3  2  1 )
num_ms=8
< 0  0  0 >:  2.599038948061873189  -17.668002659838627721 
< 0  1  -1 >:  3.001111672595687452  -20.401252183401705764 
< 1  -2  1 >:  -1.732692632041248348  11.778668439892415520 
< 1  -1  0 >:  -4.900794839313336482  33.315105308783600435 
< 1  0  -1 >:  -4.244212829581025304  28.851727527160413445 
< 2  -2  0 >:  3.874418509357261620  -26.337903316030839562 
< 2  -1  -1 >:  5.479255202242390155  -37.247420074002128842 
< 3  -2  -1 >:  -6.710689707992051112  45.618586708202229829 
ctilde_basis_func: rank=3 ndens=2 mu0=0 mu=( 0  0  0 )
n=( 1  1  1 )
l=( 3  3  0 )
num_ms=4
< 0  0  0 >:  1.895335215720024280  -1.856716612622111517 
< 1  -1  0 >:  -3.790670431440048560  3.713433225244223035 
< 2  -2  0 >:  3.790670431440048560  -3.713433225244223035 
< 3  -3  0 >:  -3.790670431440049004  3.713433225244223923 
ctilde_basis_func: rank=3 ndens=2 mu0=0 mu=( 0  0  0 )
n=( 1  1  1 )
l=( 3  3  4 )
num_ms=14
< -3  -1  4 >:  8.855071550418722737  -37.404917791545386763 
< -3  0  3 >:  -10.845203467180898116  45.811481230019218458 
< -3  1  2 >:  10.040707356039039411  -42.413190123104755003 
< -3  2  1 >:  -7.483901396761826419  31.612925419294978013 
< -3  3  0 >:  2.049550806575435757  -8.657556180438158222 
< -2  -2  4 >:  -5.715924107374465990  24.144770612152125722 
< -2  -1  3 >:  5.112477943327644603  -21.595739355964546746 
< -2  0  2 >:  2.366617419788284771  -9.996884782600556463 
< -2  1  1 >:  -7.729340126484526508  32.649688979687077506 
< -2  2  0 >:  4.782285215342683138  -20.200964421022366224 
< -1  -1  2 >:  -4.320832486009055451  18.251731000701511221 
< -1  0  1 >:  5.291917427381760852  -22.353713937128055989 
< -1  1  0 >:  0.683183602191812178  -2.885852060146053777 
< 0  0  0 >:  -2.049550806575435757  8.657556180438158222 
ctilde_basis_func: rank=3 ndens=2 mu0=0 mu=( 0  0  0 )
n=( 1  1  1 )
l=( 4  3  1 )
num_ms=11
< 0  0  0 >:  -1.837794597869514268  -4.271365598652360873 
< 0  1  -1 >:  -2.250829508411855695  -5.231333110787944385 
< 1  -2  1 >:  1.591576808692806377  3.699111117283871319 
< 1  -1  0 >:  3.558873935649292886  8.271463914571933529 
< 1  0  -1 >:  2.905808400410447856  6.753622005515047988 
< 2  -3  1 >:  -0.918897298934757356  -2.135682799326180881 
< 2  -2  0 >:  -3.183153617385612755  -7.398222234567742639 
< 2  -1  -1 >:  -3.558873935649292886  -8.271463914571933529 
< 3  -3  0 >:  2.431173733390345593  5.650485566335338383 
< 3  -2  -1 >:  4.210916428258989264  9.786928088327405462 
< 4  -3  -1 >:  -4.862347466780691185  -11.300971132670676766 
ctilde_basis_func: rank=3 ndens=2 mu0=0 mu=( 0  0  0 )
n=( 1  1  1 )
l=( 4  4  0 )
num_ms=5
< 0  0  0 >:  0.011906623322213367  -0.091436028841951802 
< 1  -1  0 >:  -0.023813246644426737  0.182872057683903633 
< 2  -2  0 >:  0.023813246644426737  -0.182872057683903633 
< 3  -3  0 >:  -0.023813246644426734  0.182872057683903605 
< 4  -4  0 >:  0.023813246644426734  -0.182872057683903605 
ctilde_basis_func: rank=3 ndens=2 mu0=0 mu=( 0  0  0 )
n=( 1  1  1 )
l=( 4  4  4 )
num_ms=13
< -4  0  4 >:  -0.082325462532815419  0.038983020129843733 
< -4  1  3 >:  0.173557314020367393  -0.082183422454999377 
< -4  2  2 >:  -0.098397748095907692  0.046593620937447795 
< -3  -1  4 >:  0.086778657010183696  -0.041091711227499689 
< -3  0  3 >:  -0.123488193799223128  0.058474530194765596 
< -3  1  2 >:  0.065598498730605137  -0.031062413958298535 
< -2  -2  4 >:  -0.049198874047953853  0.023296810468723901 
< -2  -1  3 >:  0.032799249365302575  -0.015531206979149269 
< -2  0  2 >:  0.064684291990069268  -0.030629515816305793 
< -2  1  1 >:  -0.074381706008728912  0.035221466766428310 
< -1  -1  2 >:  -0.037190853004364456  0.017610733383214155 
< -1  0  1 >:  0.052923511628238482  -0.025060512940613826 
< 0  0  0 >:  -0.017641170542746162  0.008353504313537943 
ctilde_basis_func: rank=4 ndens=2 mu0=0 mu=( 0  0  0  0 )
n=( 1  1  1  1 )
l=( 0  0  0  0 )
num_ms=1
< 0  0  0  0 >:  9.818445130278950828  113.599990478608006583 
ctilde_basis_func: rank=4 ndens=2 mu0=0 mu=( 0  0  0  0 )
n=( 1  1  1  1 )
l=( 0  1  1  2 )
num_ms=4
< 0  -1  -1  2 >:  -0.032670705032298818  -1.165040834353334498 
< 0  -1  0  1 >:  0.046203354148967909  1.647616548660951752 
< 0  -1  1  0 >:  -0.013337759477685118  -0.475625928945341392 
< 0  0  0  0 >:  -0.013337759477685118  -0.475625928945341392 
ctilde_basis_func: rank=4 ndens=2 mu0=0 mu=( 0  0  0  0 )
n=( 1  1  1  1 )
l=( 0  2  2  2 )
num_ms=5
< 0  -2  0  2 >:  0.281537954634433374  83.548064587780245915 
< 0  -2  1  1 >:  -0.229874777360400046  -68.216709079051383924 
< 0  -1  -1  2 >:  -0.114937388680200023  -34.108354539525691962 
< 0  -1  0  1 >:  0.140768977317216687  41.774032293890122958 
< 0  0  0  0 >:  -0.046922992439072227  -13.924677431296705876 
ctilde_basis_func: rank=4 ndens=2 mu0=0 mu=( 0  0  0  0 )
n=( 1  1  1  1 )
l=( 1  1  0  0 )
num_ms=2
< 0  0  0  0 >:  -0.032205990666547377  -0.320233104986906325 
< 1  -1  0  0 >:  0.064411981333094753  0.640466209973812650 
ctilde_basis_func: rank=4 ndens=2 mu0=0 mu=( 0  0  0  0 )
n=( 1  1  1  1 )
l=( 1  1  1  1 )
num_ms=3
< -1  -1  1  1 >:  -0.002421685459982907  0.038689700528159426 
< -1  0  0  1 >:  0.002421685459982907  -0.038689700528159426 
< 0  0  0  0 >:  -0.000605421364995727  0.009672425132039857 
ctilde_basis_func: rank=4 ndens=2 mu0=0 mu=( 0  0  0  0 )
n=( 1  1  1  1 )
l=( 1  1  2  2 )
num_ms=11
< -1  -1  0  2 >:  -0.095720689668575928  1.439885552360897103 
< -1  -1  1  1 >:  0.058616711878827110  -0.881746222822426984 
< -1  0  -1  2 >:  0.082896548920753405  -1.246977466886725505 
< -1  0  0  1 >:  -0.067684748764503144  1.018152838206928257 
< -1  1  -2  2 >:  -0.169170084728556241  0.585853863803926678 
< -1  1  -1  1 >:  0.110553372849729117  0.295892359018500417 
< -1  1  0  0 >:  -0.045507234445060038  -0.294903883312988058 
< 0  0  -2  2 >:  0.025968330485451004  0.588819290920463700 
< 0  0  -1  1 >:  -0.084585042364278121  0.292926931901963339 
< 0  0  0  0 >:  0.052061973161943581  -0.293421169754719491 
< 0  1  -2  1 >:  0.082896548920753405  -1.246977466886725505 
ctilde_basis_func: rank=4 ndens=2 mu0=0 mu=( 0  0  0  0 )
n=( 1  1  1  1 )
l=( 2  2  0  0 )
num_ms=3
< 0  0  0  0 >:  2.025448500756757753  -16.402015734400066549 
< 1  -1  0  0 >:  -4.050897001513515505  32.804031468800133098 
< 2  -2  0  0 >:  4.050897001513515505  -32.804031468800133098 
ctilde_basis_func: rank=4 ndens=2 mu0=0 mu=( 0  0  0  0 )
n=( 1  1  1  1 )
l=( 2  2  2  2 )
num_ms=6
< -2  -2  2  2 >:  -8.060131039426400079  49.152815633628556213 
< -2  -1  1  2 >:  16.120262078852800158  -98.305631267257112427 
< -2  0  0  2 >:  -8.060131039426400079  49.152815633628556213 
< -1  -1  1  1 >:  -8.060131039426400079  49.152815633628556213 
< -1  0  0  1 >:  8.060131039426400079  -49.152815633628556213 
< 0  0  0  0 >:  -2.015032759856600020  12.288203908407139053 
ctilde_basis_func: rank=5 ndens=2 mu0=0 mu=( 0  0  0  0  0 )
n=( 1  1  1  1  1 )
l=( 0  0  0  0  0 )
num_ms=1
< 0  0  0  0  0 >:  -1.815343619994423285  -22.347747682937470159 
ctilde_basis_func: rank=5 ndens=2 mu0=0 mu=( 0  0  0  0  0 )
n=( 1  1  1  1  1 )
l=( 0  1  1  1  1 )
num_ms=3
< 0  -1  -1  1  1 >:  0.003026003332770540  -0.038892986828432383 
< 0  -1  0  0  1 >:  -0.003026003332770540  0.038892986828432383 
< 0  0  0  0  0 >:  0.000756500833192635  -0.009723246707108096 
ctilde_basis_func: rank=5 ndens=2 mu0=0 mu=( 0  0  0  0  0 )
n=( 1  1  1  1  1 )
l=( 1  1  0  0  0 )
num_ms=2
< 0  0  0  0  0 >:  0.039425502624965358  -0.170050332789259628 
< 1  -1  0  0  0 >:  -0.078851005249930717  0.340100665578519257 
ctilde_basis_func: rank=6 ndens=2 mu0=0 mu=( 0  0  0  0  0  0 )
n=( 1  1  1  1  1  1 )
l=( 0  0  0  0  0  0 )
num_ms=1
< 0  0  0  0  0  0 >:  0.012001716829786398  -0.143152016809735216 
ctilde_basis_func: rank=6 ndens=2 mu0=0 mu=( 0  0  0  0  0  0 )
n=( 1  1  1  1  1  1 )
l=( 0  0  1  1  1  1 )
num_ms=3
< 0  0  -1  -1  1  1 >:  0.000970207117202954  -0.012899524991134767 
< 0  0  -1  0  0  1 >:  -0.000970207117202954  0.012899524991134767 
< 0  0  0  0  0  0 >:  0.000242551779300739  -0.003224881247783692 
ctilde_basis_func: rank=6 ndens=2 mu0=0 mu=( 0  0  0  0  0  0 )
n=( 1  1  1  1  1  1 )
l=( 1  1  0  0  0  0 )
num_ms=2
< 0  0  0  0  0  0 >:  -0.017231853678218410  0.252727796738453026 
< 1  -1  0  0  0  0 >:  0.034463707356436821  -0.505455593476906051 
ctilde_basis_func: rank=6 ndens=2 mu0=0 mu=( 0  0  0  0  0  0 )
n=( 1  1  1  1  1  1 )
l=( 1  1  1  1  1  1 )
num_ms=4
< -1  -1  -1  1  1  1 >:  0.000003850147321936  -0.000074646168886272 
< -1  -1  0  0  1  1 >:  -0.000005775220982905  0.000111969253329408 
< -1  0  0  0  0  1 >:  0.000002887610491452  -0.000055984626664704 
< 0  0  0  0  0  0 >:  -0.000000481268415242  0.000009330771110784 
ctilde_basis_func: rank=3 ndens=2 mu0=0 mu=( 0  0  0 )
n=( 1  1  2 )
l=( 1  1  0 )
num_ms=2
< 0  0  0 >:  -1.373621264076898996  15.906620510846275707 
< 1  -1  0 >:  2.747242528153797991  -31.813241021692551413 
ctilde_basis_func: rank=3 ndens=2 mu0=0 mu=( 0  0  0 )
n=( 1  1  2 )
l=( 1  1  2 )
num_ms=4
< -1  -1  2 >:  0.527037489328283648  -111.332402014449385774 
< -1  0  1 >:  -0.745343565287123977  157.447792860407986382 
< -1  1  0 >:  0.215162154028638253  -45.451262795634498559 
< 0  0  0 >:  0.215162154028638253  -45.451262795634498559 
ctilde_basis_func: rank=3 ndens=2 mu0=0 mu=( 0  0  0 )
n=( 1  1  2 )
l=( 2  2  0 )
num_ms=3
< 0  0  0 >:  1.595917354234303476  -17.345642734278534647 
< 1  -1  0 >:  -3.191834708468606951  34.691285468557069294 
< 2  -2  0 >:  3.191834708468606951  -34.691285468557069294 
ctilde_basis_func: rank=3 ndens=2 mu0=0 mu=( 0  0  0 )
n=( 1  1  2 )
l=( 2  2  2 )
num_ms=7
< -2  0  2 >:  9.951177350536488220  -56.212061695188587862 
< -2  1  1 >:  -12.187653424377703715  68.845434271529811099 
< -2  2  0 >:  4.975588675268244110  -28.106030847594293931 
< -1  -1  2 >:  -6.093826712188851857  34.422717135764905549 
< -1  0  1 >:  4.975588675268244110  -28.106030847594293931 
< -1  1  0 >:  2.487794337634122055  -14.053015423797146966 
< 0  0  0 >:  -2.487794337634122055  14.053015423797146966 
ctilde_basis_func: rank=3 ndens=2 mu0=0 mu=( 0  0  0 )
n=( 1  1  2 )
l=( 2  2  4 )
num_ms=9
< -2  -2  4 >:  3.837129806028202417  -1.570206688491670111 
< -2  -1  3 >:  -5.426521012271127375  2.220607594593865919 
< -2  0  2 >:  3.552491899857260993  -1.453728913002885648 
< -2  1  1 >:  -2.051032154676554864  0.839310779250958205 
< -2  2  0 >:  0.458624732189464035  -0.187675595665346251 
< -1  -1  2 >:  2.900597490006895374  -1.186964687062635804 
< -1  0  1 >:  -5.023982224998702506  2.055883144782578498 
< -1  1  0 >:  1.834498928757856140  -0.750702382661385004 
< 0  0  0 >:  1.375874196568392049  -0.563026786996038697 
ctilde_basis_func: rank=3 ndens=2 mu0=0 mu=( 0  0  0 )
n=( 1  1  2 )
l=( 3  2  1 )
num_ms=8
< 0  0  0 >:  7.751138255643852837  -46.779169989810640118 
< 0  1  -1 >:  8.950243516843967129  -54.015932772168852694 
< 1  -2  1 >:  -5.167425503762567374  31.186113326540418456 
< 1  -1  0 >:  -14.615686459947291098  88.207648848195546520 
< 1  0  -1 >:  -12.657555768062605850  76.390064710634533185 
< 2  -2  0 >:  11.554714695079196574  -69.734269352156474042 
< 2  -1  -1 >:  16.340834231132703280  -98.619149479998156949 
< 3  -2  -1 >:  -20.013352918839895977  120.783297546628233476 
ctilde_basis_func: rank=3 ndens=2 mu0=0 mu=( 0  0  0 )
n=( 1  1  2 )
l=( 3  3  0 )
num_ms=4
< 0  0  0 >:  1.662022871800350687  -19.926169651489196610 
< 1  -1  0 >:  -3.324045743600701375  39.852339302978393221 
< 2  -2  0 >:  3.324045743600701375  -39.852339302978393221 
< 3  -3  0 >:  -3.324045743600701819  39.852339302978400326 
ctilde_basis_func: rank=3 ndens=2 mu0=0 mu=( 0  0  0 )
n=( 1  1  2 )
l=( 3  3  2 )
num_ms=12
< -3  1  2 >:  -4.458021778729666096  -25.014920932849193491 
< -3  2  1 >:  7.048751339710462638  39.552062818413688206 
< -3  3  0 >:  -7.048751339710462638  -39.552062818413688206 
< -2  1  1 >:  -5.459939310051168171  -30.636896120773158714 
< -2  3  -1 >:  7.048751339710462638  39.552062818413688206 
< -1  1  0 >:  4.229250803826277050  23.731237691048207239 
< -1  2  -1 >:  -5.459939310051168171  -30.636896120773158714 
< -1  3  -2 >:  -4.458021778729666096  -25.014920932849193491 
< 0  0  0 >:  -2.819500535884185144  -15.820825127365475637 
< 0  1  -1 >:  3.987375896965624555  22.374025463053303753 
< 0  2  -2 >:  12.609189721668247586  70.752880889851951451 
< 1  1  -2 >:  -6.906337642419986267  -38.752948871848097667 
ctilde_basis_func: rank=3 ndens=2 mu0=0 mu=( 0  0  0 )
n=( 1  1  2 )
l=( 3  3  4 )
num_ms=14
< -3  -1  4 >:  9.738582843766799613  -64.284346917915030417 
< -3  0  3 >:  -11.927279392525502288  78.731924198474146692 
< -3  1  2 >:  11.042514997203056737  -72.891597916716278860 
< -3  2  1 >:  -8.230604725435647140  54.330189310119898494 
< -3  3  0 >:  2.254043935014858668  -14.878935119339351090 
< -2  -2  4 >:  -6.286228194928344948  41.495367505817490894 
< -2  -1  3 >:  5.622573426374230188  -37.114584997737523508 
< -2  0  2 >:  2.602745745292143642  -17.180714392811101021 
< -2  1  1 >:  -8.500532008220886837  56.111978238504150340 
< -2  2  0 >:  5.259435848368002375  -34.717515278458478178 
< -1  -1  2 >:  -4.751941853823675288  31.367549423321044344 
< -1  0  1 >:  5.819916414621586931  -38.417245284334647693 
< -1  1  0 >:  0.751347978338286482  -4.959645039779785769 
< 0  0  0 >:  -2.254043935014858668  14.878935119339351090 
ctilde_basis_func: rank=3 ndens=2 mu0=0 mu=( 0  0  0 )
n=( 1  1  2 )
l=( 4  3  1 )
num_ms=11
< 0  0  0 >:  -5.162903276072161596  -10.882094341976628726 
< 0  1  -1 >:  -6.323239308860213903  -13.327789235335307794 
< 1  -2  1 >:  4.471205394360395324  9.424170146530665093 
< 1  -1  0 >:  9.997919203153598389  21.073085079166720135 
< 1  0  -1 >:  8.163266845766568025  17.206101916738706592 
< 2  -3  1 >:  -2.581451638036081242  -5.441047170988315251 
< 2  -2  0 >:  -8.942410788720790649  -18.848340293061330186 
< 2  -1  -1 >:  -9.997919203153598389  -21.073085079166720135 
< 3  -3  0 >:  6.829879055783797170  14.395657686206618564 
< 3  -2  -1 >:  11.829697534168085227  24.934010520879283490 
< 4  -3  -1 >:  -13.659758111567594341  -28.791315372413237128 
ctilde_basis_func: rank=3 ndens=2 mu0=0 mu=( 0  0  0 )
n=( 1  1  2 )
l=( 4  4  0 )
num_ms=5
< 0  0  0 >:  1.085628477488632671  -5.724021511488453839 
< 1  -1  0 >:  -2.171256954977265785  11.448043022976909455 
< 2  -2  0 >:  2.171256954977265785  -11.448043022976909455 
< 3  -3  0 >:  -2.171256954977265341  11.448043022976907679 
< 4  -4  0 >:  2.171256954977265341  -11.448043022976907679 
ctilde_basis_func: rank=3 ndens=2 mu0=0 mu=( 0  0  0 )
n=( 1  1  2 )
l=( 4  4  2 )
num_ms=18
< -4  2  2 >:  0.759473971280701710  0.794547739053806601 
< -4  3  1 >:  -1.420845697352489001  -1.486462708487604756 
< -4  4  0 >:  1.640651291686761937  1.716419289771317525 
< -3  1  2 >:  -1.139210956921052453  -1.191821608580709846 
< -3  2  1 >:  1.342572988068153617  1.404575235653465315 
< -3  3  0 >:  -0.410162822921690429  -0.429104822442829326 
< -3  4  -1 >:  -1.420845697352489001  -1.486462708487604756 
< -2  1  1 >:  -0.913400805440885644  -0.955583169742031613 
< -2  2  0 >:  -0.468757511910503355  -0.490405511363233571 
< -2  3  -1 >:  1.342572988068153617  1.404575235653465315 
< -2  4  -2 >:  0.759473971280701710  0.794547739053806601 
< -1  1  0 >:  0.996109712809819636  1.042111711646871219 
< -1  2  -1 >:  -0.913400805440885644  -0.955583169742031613 
< -1  3  -2 >:  -1.139210956921052453  -1.191821608580709846 
< 0  0  0 >:  -0.585946889888129263  -0.613006889204042005 
< 0  1  -1 >:  0.641872658183448186  0.671515402246247728 
< 0  2  -2 >:  2.723235055558506534  2.848998567597203380 
< 1  1  -2 >:  -1.435270896596676948  -1.501554087360724932 
ctilde_basis_func: rank=3 ndens=2 mu0=0 mu=( 0  0  0 )
n=( 1  1  2 )
l=( 4  4  4 )
num_ms=19
< -4  0  4 >:  -1.535414984489935630  5.623519062972989424 
< -4  1  3 >:  2.427704252270150853  -8.891564352185250542 
< -4  2  2 >:  -2.752757874994642862  10.082086303803986738 
< -4  3  1 >:  2.427704252270150853  -8.891564352185250542 
< -4  4  0 >:  -0.767707492244967815  2.811759531486494712 
< -3  -1  4 >:  2.427704252270150853  -8.891564352185250542 
< -3  0  3 >:  -2.303122476734903668  8.435278594459484580 
< -3  1  2 >:  0.917585958331547769  -3.360695434601329801 
< -3  2  1 >:  0.917585958331547769  -3.360695434601329801 
< -3  3  0 >:  -1.151561238367451834  4.217639297229742290 
< -2  -2  4 >:  -1.376378937497321653  5.041043151901994257 
< -2  -1  3 >:  0.917585958331547880  -3.360695434601330245 
< -2  0  2 >:  1.206397487813521074  -4.418479263764492515 
< -2  1  1 >:  -2.080889359088701429  7.621340873301645225 
< -2  2  0 >:  0.603198743906760648  -2.209239631882246702 
< -1  -1  2 >:  -1.040444679544350715  3.810670436650822612 
< -1  0  1 >:  0.987052490029244223  -3.615119397625492503 
< -1  1  0 >:  0.493526245014622167  -1.807559698812746696 
< 0  0  0 >:  -0.493526245014622167  1.807559698812746696 
ctilde_basis_func: rank=3 ndens=2 mu0=0 mu=( 0  0  0 )
n=( 1  1  3 )
l=( 1  1  0 )
num_ms=2
< 0  0  0 >:  0.009282694084457420  -0.071636789624634351 
< 1  -1  0 >:  -0.018565388168914839  0.143273579249268701 
ctilde_basis_func: rank=3 ndens=2 mu0=0 mu=( 0  0  0 )
n=( 1  1  3 )
l=( 1  1  2 )
num_ms=4
< -1  -1  2 >:  0.000000000000000000  0.000000000000000000 
< -1  0  1 >:  0.000000000000000000  0.000000000000000000 
< -1  1  0 >:  0.000000000000000000  0.000000000000000000 
< 0  0  0 >:  0.000000000000000000  0.000000000000000000 
ctilde_basis_func: rank=3 ndens=2 mu0=0 mu=( 0  0  0 )
n=( 1  1  3 )
l=( 2  2  0 )
num_ms=3
< 0  0  0 >:  -0.069458481632346025  3.026044890811347976 
< 1  -1  0 >:  0.138916963264692050  -6.052089781622695952 
< 2  -2  0 >:  -0.138916963264692050  6.052089781622695952 
ctilde_basis_func: rank=3 ndens=2 mu0=0 mu=( 0  0  0 )
n=( 1  1  3 )
l=( 2  2  2 )
num_ms=7
< -2  0  2 >:  0.000000000000000000  0.000000000000000000 
< -2  1  1 >:  0.000000000000000000  0.000000000000000000 
< -2  2  0 >:  0.000000000000000000  0.000000000000000000 
< -1  -1  2 >:  0.000000000000000000  0.000000000000000000 
< -1  0  1 >:  0.000000000000000000  0.000000000000000000 
< -1  1  0 >:  0.000000000000000000  0.000000000000000000 
< 0  0  0 >:  0.000000000000000000  0.000000000000000000 
ctilde_basis_func: rank=3 ndens=2 mu0=0 mu=( 0  0  0 )
n=( 1  1  3 )
l=( 2  2  4 )
num_ms=9
< -2  -2  4 >:  0.000000000000000000  0.000000000000000000 
< -2  -1  3 >:  0.000000000000000000  0.000000000000000000 
< -2  0  2 >:  0.000000000000000000  0.000000000000000000 
< -2  1  1 >:  0.000000000000000000  0.000000000000000000 
< -2  2  0 >:  0.000000000000000000  0.000000000000000000 
< -1  -1  2 >:  0.000000000000000000  0.000000000000000000 
< -1  0  1 >:  0.000000000000000000  0.000000000000000000 
< -1  1  0 >:  0.000000000000000000  0.000000000000000000 
< 0  0  0 >:  0.000000000000000000  0.000000000000000000 
ctilde_basis_func: rank=3 ndens=2 mu0=0 mu=( 0  0  0 )
n=( 1  1  3 )
l=( 3  2  1 )
num_ms=8
< 0  0  0 >:  1.355088621982263541  -10.302619517628645696 
< 0  1  -1 >:  1.564721561354517343  -11.896440303722378928 
< 1  -2  1 >:  -0.903392414654842102  6.868413011752428687 
< 1  -1  0 >:  -2.555179609899712823  19.426805666400241535 
< 1  0  -1 >:  -2.212850453405163620  16.824107221486091390 
< 2  -2  0 >:  2.020046849525904520  -15.358238391822494506 
< 2  -1  -1 >:  2.856777651228576964  -21.719829027874524741 
< 3  -2  -1 >:  -3.498823777048309047  26.601249209391486517 
ctilde_basis_func: rank=3 ndens=2 mu0=0 mu=( 0  0  0 )
n=( 1  1  3 )
l=( 3  3  0 )
num_ms=4
< 0  0  0 >:  -0.610545661058753408  4.145396395769625819 
< 1  -1  0 >:  1.221091322117506817  -8.290792791539251638 
< 2  -2  0 >:  -1.221091322117506817  8.290792791539251638 
< 3  -3  0 >:  1.221091322117507039  -8.290792791539251638 
ctilde_basis_func: rank=3 ndens=2 mu0=0 mu=( 0  0  0 )
n=( 1  1  3 )
l=( 3  3  2 )
num_ms=12
< -3  1  2 >:  -6.320227969927419309  14.443860697435535911 
< -3  2  1 >:  9.993157858236413560  -22.837749005042233819 
< -3  3  0 >:  -9.993157858236413560  22.837749005042233819 
< -2  1  1 >:  -7.740666792194281776  17.690044312278715211 
< -2  3  -1 >:  9.993157858236413560  -22.837749005042233819 
< -1  1  0 >:  5.995894714941846892  -13.702649403025336738 
< -1  2  -1 >:  -7.740666792194281776  17.690044312278715211 
< -1  3  -2 >:  -6.320227969927419309  14.443860697435535911 
< 0  0  0 >:  -3.997263143294565779  9.135099602016893527 
< 0  1  -1 >:  5.652983749621283138  -12.918981750801354025 
< 0  2  -2 >:  17.876304224722264991  -40.853407382682100035 
< 1  1  -2 >:  -9.791255068705284614  22.376332774443074669 
ctilde_basis_func: rank=3 ndens=2 mu0=0 mu=( 0  0  0 )
n=( 1  1  3 )
l=( 3  3  4 )
num_ms=14
< -3  -1  4 >:  0.000000000000000000  0.000000000000000000 
< -3  0  3 >:  0.000000000000000000  0.000000000000000000 
< -3  1  2 >:  0.000000000000000000  0.000000000000000000 
< -3  2  1 >:  0.000000000000000000  0.000000000000000000 
< -3  3  0 >:  0.000000000000000000  0.000000000000000000 
< -2  -2  4 >:  0.000000000000000000  0.000000000000000000 
< -2  -1  3 >:  0.000000000000000000  0.000000000000000000 
< -2  0  2 >:  0.000000000000000000  0.000000000000000000 
< -2  1  1 >:  0.000000000000000000  0.000000000000000000 
< -2  2  0 >:  0.000000000000000000  0.000000000000000000 
< -1  -1  2 >:  0.000000000000000000  0.000000000000000000 
< -1  0  1 >:  0.000000000000000000  0.000000000000000000 
< -1  1  0 >:  0.000000000000000000  0.000000000000000000 
< 0  0  0 >:  0.000000000000000000  0.000000000000000000 
ctilde_basis_func: rank=3 ndens=2 mu0=0 mu=( 0  0  0 )
n=( 1  1  3 )
l=( 4  3  1 )
num_ms=11
< 0  0  0 >:  0.594568661476942761  21.628368878867629377 
< 0  1  -1 >:  0.728194918834047633  26.489233860958588451 
< 1  -2  1 >:  -0.514911565133142624  -18.730716891520128087 
< 1  -1  0 >:  -1.151377262038517424  -41.883156236742557610 
< 1  0  -1 >:  -0.940095597812375949  -34.197453865762064140 
< 2  -3  1 >:  0.297284330738471436  10.814184439433818241 
< 2  -2  0 >:  1.029823130266285247  37.461433783040256174 
< 2  -1  -1 >:  1.151377262038517424  41.883156236742557610 
< 3  -3  0 >:  -0.786540407810270237  -28.611642658726317734 
< 3  -2  -1 >:  -1.362327948533332389  -49.556818772919051241 
< 4  -3  -1 >:  1.573080815620540474  57.223285317452635468 
ctilde_basis_func: rank=3 ndens=2 mu0=0 mu=( 0  0  0 )
n=( 1  1  3 )
l=( 4  4  0 )
num_ms=5
< 0  0  0 >:  -0.196937012212309415  2.513992554652237033 
< 1  -1  0 >:  0.393874024424618885  -5.027985109304474953 
< 2  -2  0 >:  -0.393874024424618885  5.027985109304474953 
< 3  -3  0 >:  0.393874024424618829  -5.027985109304474065 
< 4  -4  0 >:  -0.393874024424618829  5.027985109304474065 
ctilde_basis_func: rank=3 ndens=2 mu0=0 mu=( 0  0  0 )
n=( 1  1  3 )
l=( 4  4  2 )
num_ms=18
< -4  2  2 >:  1.701654180688738194  -3.638338754567702615 
< -4  3  1 >:  -3.183503467454388058  6.806708538307073120 
< -4  4  0 >:  3.675993167801795636  -7.859710013773825388 
< -3  1  2 >:  -2.552481271033106847  5.457508131851553479 
< -3  2  1 >:  3.008128025998613175  -6.431735014021600527 
< -3  3  0 >:  -0.918998291950448798  1.964927503443456125 
< -3  4  -1 >:  -3.183503467454388058  6.806708538307073120 
< -2  1  1 >:  -2.046537943363535117  4.375741203197404339 
< -2  2  0 >:  -1.050283762229084372  2.245631432506807190 
< -2  3  -1 >:  3.008128025998613175  -6.431735014021600527 
< -2  4  -2 >:  1.701654180688738194  -3.638338754567702615 
< -1  1  0 >:  2.231852994736804430  -4.771966794076965002 
< -1  2  -1 >:  -2.046537943363535117  4.375741203197404339 
< -1  3  -2 >:  -2.552481271033106847  5.457508131851553479 
< 0  0  0 >:  -1.312854702786355743  2.807039290633509321 
< 0  1  -1 >:  1.438160270885654679  -3.074957478566545443 
< 0  2  -2 >:  6.101597279857971401  -13.045939709728152422 
< 1  1  -2 >:  -3.215824128239835655  6.875813949996148366 
ctilde_basis_func: rank=3 ndens=2 mu0=0 mu=( 0  0  0 )
n=( 1  1  3 )
l=( 4  4  4 )
num_ms=19
< -4  0  4 >:  0.000000000000000000  0.000000000000000000 
< -4  1  3 >:  0.000000000000000000  0.000000000000000000 
< -4  2  2 >:  0.000000000000000000  0.000000000000000000 
< -4  3  1 >:  0.000000000000000000  0.000000000000000000 
< -4  4  0 >:  0.000000000000000000  0.000000000000000000 
< -3  -1  4 >:  0.000000000000000000  0.000000000000000000 
< -3  0  3 >:  0.000000000000000000  0.000000000000000000 
< -3  1  2 >:  0.000000000000000000  0.000000000000000000 
< -3  2  1 >:  0.000000000000000000  0.000000000000000000 
< -3  3  0 >:  0.000000000000000000  0.000000000000000000 
< -2  -2  4 >:  0.000000000000000000  0.000000000000000000 
< -2  -1  3 >:  0.000000000000000000  0.000000000000000000 
< -2  0  2 >:  0.000000000000000000  0.000000000000000000 
< -2  1  1 >:  0.000000000000000000  0.000000000000000000 
< -2  2  0 >:  0.000000000000000000  0.000000000000000000 
< -1  -1  2 >:  0.000000000000000000  0.000000000000000000 
< -1  0  1 >:  0.000000000000000000  0.000000000000000000 
< -1  1  0 >:  0.000000000000000000  0.000000000000000000 
< 0  0  0 >:  0.000000000000000000  0.000000000000000000 
ctilde_basis_func: rank=3 ndens=2 mu0=0 mu=( 0  0  0 )
n=( 1  1  4 )
l=( 1  1  0 )
num_ms=2
< 0  0  0 >:  -0.009132402657405069  0.150101673562060667 
< 1  -1  0 >:  0.018264805314810138  -0.300203347124121334 
ctilde_basis_func: rank=3 ndens=2 mu0=0 mu=( 0  0  0 )
n=( 1  1  4 )
l=( 1  1  2 )
num_ms=4
< -1  -1  2 >:  0.000000000000000000  0.000000000000000000 
< -1  0  1 >:  0.000000000000000000  0.000000000000000000 
< -1  1  0 >:  0.000000000000000000  0.000000000000000000 
< 0  0  0 >:  0.000000000000000000  0.000000000000000000 
ctilde_basis_func: rank=3 ndens=2 mu0=0 mu=( 0  0  0 )
n=( 1  1  4 )
l=( 2  2  0 )
num_ms=3
< 0  0  0 >:  0.263447944779429122  1.067856152283165549 
< 1  -1  0 >:  -0.526895889558858244  -2.135712304566331099 
< 2  -2  0 >:  0.526895889558858244  2.135712304566331099 
ctilde_basis_func: rank=3 ndens=2 mu0=0 mu=( 0  0  0 )
n=( 1  1  4 )
l=( 2  2  2 )
num_ms=7
< -2  0  2 >:  0.000000000000000000  0.000000000000000000 
< -2  1  1 >:  0.000000000000000000  0.000000000000000000 
< -2  2  0 >:  0.000000000000000000  0.000000000000000000 
< -1  -1  2 >:  0.000000000000000000  0.000000000000000000 
< -1  0  1 >:  0.000000000000000000  0.000000000000000000 
< -1  1  0 >:  0.000000000000000000  0.000000000000000000 
< 0  0  0 >:  0.000000000000000000  0.000000000000000000 
ctilde_basis_func: rank=3 ndens=2 mu0=0 mu=( 0  0  0 )
n=( 1  1  4 )
l=( 2  2  4 )
num_ms=9
< -2  -2  4 >:  0.000000000000000000  0.000000000000000000 
< -2  -1  3 >:  0.000000000000000000  0.000000000000000000 
< -2  0  2 >:  0.000000000000000000  0.000000000000000000 
< -2  1  1 >:  0.000000000000000000  0.000000000000000000 
< -2  2  0 >:  0.000000000000000000  0.000000000000000000 
< -1  -1  2 >:  0.000000000000000000  0.000000000000000000 
< -1  0  1 >:  0.000000000000000000  0.000000000000000000 
< -1  1  0 >:  0.000000000000000000  0.000000000000000000 
< 0  0  0 >:  0.000000000000000000  0.000000000000000000 
ctilde_basis_func: rank=3 ndens=2 mu0=0 mu=( 0  0  0 )
n=( 1  1  4 )
l=( 3  2  1 )
num_ms=8
< 0  0  0 >:  -0.662457887110714849  4.723513317233503983 
< 0  1  -1 >:  -0.764940478900323573  5.454243370451090200 
< 1  -2  1 >:  0.441638591407143122  -3.149008878155668434 
< 1  -1  0 >:  1.249142571270663193  -8.906742127042063473 
< 1  0  -1 >:  1.081789199669008106  -7.713464946975473246 
< 2  -2  0 >:  -0.987533911873626602  7.041397913306428613 
< 2  -1  -1 >:  -1.396583851475039717  9.958040427063563627 
< 3  -2  -1 >:  1.710458909562367458  -12.196058942156206228 
ctilde_basis_func: rank=3 ndens=2 mu0=0 mu=( 0  0  0 )
n=( 1  1  4 )
l=( 3  3  0 )
num_ms=4
< 0  0  0 >:  1.156108910941278323  -7.963450034751952344 
< 1  -1  0 >:  -2.312217821882556645  15.926900069503904689 
< 2  -2  0 >:  2.312217821882556645  -15.926900069503904689 
< 3  -3  0 >:  -2.312217821882557089  15.926900069503906465 
ctilde_basis_func: rank=3 ndens=2 mu0=0 mu=( 0  0  0 )
n=( 1  1  4 )
l=( 3  3  2 )
num_ms=12
< -3  1  2 >:  -3.811945209503485810  17.054734092518774702 
< -3  2  1 >:  6.027214588899373560  -26.965902310442078971 
< -3  3  0 >:  -6.027214588899373560  26.965902310442078971 
< -2  1  1 >:  -4.668660345365131192  20.887698112759657931 
< -2  3  -1 >:  6.027214588899373560  -26.965902310442078971 
< -1  1  0 >:  3.616328753339622892  -16.179541386265245961 
< -1  2  -1 >:  -4.668660345365131192  20.887698112759657931 
< -1  3  -2 >:  -3.811945209503485810  17.054734092518774702 
< 0  0  0 >:  -2.410885835559749335  10.786360924176833009 
< 0  1  -1 >:  3.409507445981789342  -15.254217907622068751 
< 0  2  -2 >:  10.781809228605959916  -48.238072512613712206 
< 1  1  -2 >:  -5.905440125224857617  26.421080445728431840 
ctilde_basis_func: rank=3 ndens=2 mu0=0 mu=( 0  0  0 )
n=( 1  1  4 )
l=( 3  3  4 )
num_ms=14
< -3  -1  4 >:  0.000000000000000000  0.000000000000000000 
< -3  0  3 >:  0.000000000000000000  0.000000000000000000 
< -3  1  2 >:  0.000000000000000000  0.000000000000000000 
< -3  2  1 >:  0.000000000000000000  0.000000000000000000 
< -3  3  0 >:  0.000000000000000000  0.000000000000000000 
< -2  -2  4 >:  0.000000000000000000  0.000000000000000000 
< -2  -1  3 >:  0.000000000000000000  0.000000000000000000 
< -2  0  2 >:  0.000000000000000000  0.000000000000000000 
< -2  1  1 >:  0.000000000000000000  0.000000000000000000 
< -2  2  0 >:  0.000000000000000000  0.000000000000000000 
< -1  -1  2 >:  0.000000000000000000  0.000000000000000000 
< -1  0  1 >:  0.000000000000000000  0.000000000000000000 
< -1  1  0 >:  0.000000000000000000  0.000000000000000000 
< 0  0  0 >:  0.000000000000000000  0.000000000000000000 
ctilde_basis_func: rank=3 ndens=2 mu0=0 mu=( 0  0  0 )
n=( 1  1  4 )
l=( 4  3  1 )
num_ms=11
< 0  0  0 >:  -2.099798523351980695  -11.416915587209224725 
< 0  1  -1 >:  -2.571717472430970819  -13.982808812545192367 
< 1  -2  1 >:  1.818478864051867427  9.887338931385720286 
< 1  -1  0 >:  4.066242355666574326  22.108761967158599759 
< 1  0  -1 >:  3.320072980625260239  18.051728554729940868 
< 2  -3  1 >:  -1.049899261675990791  -5.708457793604613251 
< 2  -2  0 >:  -3.636957728103734855  -19.774677862771440573 
< 2  -1  -1 >:  -4.066242355666574326  -22.108761967158599759 
< 3  -3  0 >:  2.777772348064998287  15.103159691586286684 
< 3  -2  -1 >:  4.811242838708476022  26.159439940653740564 
< 4  -3  -1 >:  -5.555544696129996574  -30.206319383172573367 
ctilde_basis_func: rank=3 ndens=2 mu0=0 mu=( 0  0  0 )
n=( 1  1  4 )
l=( 4  4  0 )
num_ms=5
< 0  0  0 >:  0.230394733159831305  -2.011338784650361866 
< 1  -1  0 >:  -0.460789466319662666  4.022677569300724620 
< 2  -2  0 >:  0.460789466319662666  -4.022677569300724620 
< 3  -3  0 >:  -0.460789466319662611  4.022677569300723732 
< 4  -4  0 >:  0.460789466319662611  -4.022677569300723732 
ctilde_basis_func: rank=3 ndens=2 mu0=0 mu=( 0  0  0 )
n=( 1  1  4 )
l=( 4  4  2 )
num_ms=18
< -4  2  2 >:  2.700661516779803595  -25.618460034013622817 
< -4  3  1 >:  -5.052475056717634416  47.927750112020035544 
< -4  4  0 >:  5.834095668139591240  -55.342198857655766631 
< -3  1  2 >:  -4.050992275169705614  38.427690051020434225 
< -3  2  1 >:  4.774140180511365017  -45.287467034018959566 
< -3  3  0 >:  -1.458523917034897810  13.835549714413939881 
< -3  4  -1 >:  -5.052475056717634416  47.927750112020035544 
< -2  1  1 >:  -3.248019679318479014  30.810696500584306534 
< -2  2  0 >:  -1.666884476611311783  15.812056816473074150 
< -2  3  -1 >:  4.774140180511365017  -45.287467034018959566 
< -2  4  -2 >:  2.700661516779803595  -25.618460034013622817 
< -1  1  0 >:  3.542129512799037538  -33.600620735005279016 
< -1  2  -1 >:  -3.248019679318479014  30.810696500584306534 
< -1  3  -2 >:  -4.050992275169705614  38.427690051020434225 
< 0  0  0 >:  -2.083605595764140173  19.765071020591346240 
< 0  1  -1 >:  2.282475571488019828  -21.651550497339066226 
< 0  2  -2 >:  9.683723726950915989  -91.859749079228521396 
< 1  1  -2 >:  -5.103770534829893180  48.414338730319535387 
ctilde_basis_func: rank=3 ndens=2 mu0=0 mu=( 0  0  0 )
n=( 1  1  4 )
l=( 4  4  4 )
num_ms=19
< -4  0  4 >:  0.000000000000000000  0.000000000000000000 
< -4  1  3 >:  0.000000000000000000  0.000000000000000000 
< -4  2  2 >:  0.000000000000000000  0.000000000000000000 
< -4  3  1 >:  0.000000000000000000  0.000000000000000000 
< -4  4  0 >:  0.000000000000000000  0.000000000000000000 
< -3  -1  4 >:  0.000000000000000000  0.000000000000000000 
< -3  0  3 >:  0.000000000000000000  0.000000000000000000 
< -3  1  2 >:  0.000000000000000000  0.000000000000000000 
< -3  2  1 >:  0.000000000000000000  0.000000000000000000 
< -3  3  0 >:  0.000000000000000000  0.000000000000000000 
< -2  -2  4 >:  0.000000000000000000  0.000000000000000000 
< -2  -1  3 >:  0.000000000000000000  0.000000000000000000 
< -2  0  2 >:  0.000000000000000000  0.000000000000000000 
< -2  1  1 >:  0.000000000000000000  0.000000000000000000 
< -2  2  0 >:  0.000000000000000000  0.000000000000000000 
< -1  -1  2 >:  0.000000000000000000  0.000000000000000000 
< -1  0  1 >:  0.000000000000000000  0.000000000000000000 
< -1  1  0 >:  0.000000000000000000  0.000000000000000000 
< 0  0  0 >:  0.000000000000000000  0.000000000000000000 
ctilde_basis_func: rank=3 ndens=2 mu0=0 mu=( 0  0  0 )
n=( 1  2  1 )
l=( 2  1  1 )
num_ms=5
< 0  0  0 >:  -2.211640635103493846  -1.487266476411717164 
< 0  1  -1 >:  -2.211640635103493846  -1.487266476411717164 
< 1  -1  0 >:  3.830673948083150648  2.576021101539033076 
< 1  0  -1 >:  3.830673948083150648  2.576021101539033076 
< 2  -1  -1 >:  -5.417391050408482123  -3.643043978755780454 
ctilde_basis_func: rank=3 ndens=2 mu0=0 mu=( 0  0  0 )
n=( 1  2  1 )
l=( 3  2  1 )
num_ms=8
< 0  0  0 >:  5.611065765384291026  1.406343943785707928 
< 0  1  -1 >:  6.479100660170625581  1.623906109035756273 
< 1  -2  1 >:  -3.740710510256192833  -0.937562629190471730 
< 1  -1  0 >:  -10.580327073031776663  -2.651827571550684493 
< 1  0  -1 >:  -9.162832025593774077  -2.296550043418888798 
< 2  -2  0 >:  8.364482985080773148  2.096453772033323393 
< 2  -1  -1 >:  11.829165279740220029  2.964833357297759431 
< 3  -2  -1 >:  -14.487709509205284775  -3.631164448881137208 
ctilde_basis_func: rank=3 ndens=2 mu0=0 mu=( 0  0  0 )
n=( 1  2  1 )
l=( 4  2  2 )
num_ms=13
< 0  0  0 >:  5.114105619069247766  -40.363009997625511005 
< 0  1  -1 >:  6.818807492092330946  -53.817346663500686077 
< 0  2  -2 >:  1.704701873023082737  -13.454336665875171519 
< 1  -2  1 >:  -3.811829269450827784  30.084811377064760052 
< 1  -1  0 >:  -9.337036696760497634  73.692436881686788297 
< 1  0  -1 >:  -9.337036696760497634  73.692436881686788297 
< 1  1  -2 >:  -3.811829269450827784  30.084811377064760052 
< 2  -2  0 >:  6.602281964466988562  -52.108421841202357427 
< 2  -1  -1 >:  10.781481300616173158  -85.092696541762734341 
< 2  0  -2 >:  6.602281964466988562  -52.108421841202357427 
< 3  -2  -1 >:  -10.085152287203907662  79.596929144000000633 
< 3  -1  -2 >:  -10.085152287203907662  79.596929144000000633 
< 4  -2  -2 >:  14.262559143161805508  -112.567056718695056361 
ctilde_basis_func: rank=3 ndens=2 mu0=0 mu=( 0  0  0 )
n=( 1  2  1 )
l=( 4  3  1 )
num_ms=11
< 0  0  0 >:  -1.467644397820371482  3.712802987832963808 
< 0  1  -1 >:  -1.797489949257097264  4.547236417835791578 
< 1  -2  1 >:  1.271017332234356534  -3.215381706710112919 
< 1  -1  0 >:  2.842081155456456010  -7.189812069813104500 
< 1  0  -1 >:  2.320549546149317077  -5.870456972515296634 
< 2  -3  1 >:  -0.733822198910185963  1.856401493916482348 
< 2  -2  0 >:  -2.542034664468713068  6.430763413420225838 
< 2  -1  -1 >:  -2.842081155456456010  7.189812069813104500 
< 3  -3  0 >:  1.941511044854925316  -4.911576686391797786 
< 3  -2  -1 >:  3.362795773144867439  -8.507100366101383315 
< 4  -3  -1 >:  -3.883022089709850633  9.823153372783595572 
ctilde_basis_func: rank=3 ndens=2 mu0=0 mu=( 0  0  0 )
n=( 1  2  1 )
l=( 4  3  3 )
num_ms=22
< 0  0  0 >:  -1.153766707372207989  -0.448344619655714038 
< 0  1  -1 >:  0.384588902457402848  0.149448206551904744 
< 0  2  -2 >:  2.692122317201818493  1.046137445863332571 
< 0  3  -3 >:  1.153766707372207989  0.448344619655714038 
< 1  -3  2 >:  -2.106480172420734487  -0.818561539071695599 
< 1  -2  1 >:  -2.175563367173769080  -0.845406722312156966 
< 1  -1  0 >:  1.489506414353709340  0.578810415096092989 
< 1  0  -1 >:  1.489506414353709340  0.578810415096092989 
< 1  1  -2 >:  -2.175563367173769080  -0.845406722312156966 
< 1  2  -3 >:  -2.106480172420734931  -0.818561539071695710 
< 2  -3  1 >:  2.826139715272943942  1.098215547078696730 
< 2  -2  0 >:  0.666127519083372421  0.258851886847946855 
< 2  -1  -1 >:  -2.432353789179440895  -0.945193449862635537 
< 2  0  -2 >:  0.666127519083372421  0.258851886847946855 
< 2  1  -3 >:  2.826139715272944386  1.098215547078696952 
< 3  -3  0 >:  -3.052579778692694923  -1.186208365262860553 
< 3  -2  -1 >:  1.438999907751023155  0.559183985985051812 
< 3  -1  -2 >:  1.438999907751023155  0.559183985985051812 
< 3  0  -3 >:  -3.052579778692695367  -1.186208365262860776 
< 4  -3  -1 >:  2.492420952311700244  0.968535074504992877 
< 4  -2  -2 >:  -3.217701613347214717  -1.250373404591865523 
< 4  -1  -3 >:  2.492420952311700688  0.968535074504992988 
ctilde_basis_func: rank=3 ndens=2 mu0=0 mu=( 0  0  0 )
n=( 1  2  2 )
l=( 2  1  1 )
num_ms=4
< 0  -1  1 >:  -3.315171949785409300  11.867860937991860482 
< 0  0  0 >:  -3.315171949785409300  11.867860937991860482 
< 1  -1  0 >:  11.484092505711014809  -41.111476243527867780 
< 2  -1  -1 >:  -8.120479686561870025  29.070203636388210811 
ctilde_basis_func: rank=3 ndens=2 mu0=0 mu=( 0  0  0 )
n=( 1  2  2 )
l=( 2  2  2 )
num_ms=8
< -2  0  2 >:  -24.439635418422604118  337.450750148316672039 
< -2  1  1 >:  14.966159068696656576  -206.645537795697634920 
< -1  -1  2 >:  14.966159068696656576  -206.645537795697634920 
< -1  0  1 >:  -12.219817709211302059  168.725375074158336020 
< 0  -2  2 >:  -12.219817709211302059  168.725375074158336020 
< 0  -1  1 >:  -6.109908854605651030  84.362687537079168010 
< 0  0  0 >:  6.109908854605651030  -84.362687537079168010 
< 1  -2  1 >:  14.966159068696656576  -206.645537795697634920 
ctilde_basis_func: rank=3 ndens=2 mu0=0 mu=( 0  0  0 )
n=( 1  2  2 )
l=( 2  3  3 )
num_ms=12
< -2  -1  3 >:  0.673753702848379099  -5.281060607429339804 
< -2  0  2 >:  -1.905663248534540166  14.937095069481738818 
< -2  1  1 >:  1.043774748230941407  -8.181383913154343546 
< -1  -2  3 >:  -1.065298141486576977  8.350089990434526044 
< -1  -1  2 >:  0.825176392144644999  -6.467951894457233841 
< -1  0  1 >:  -0.602623631864467879  4.723524204603334553 
< 0  -3  3 >:  1.065298141486576977  -8.350089990434526044 
< 0  -1  1 >:  -0.639178884891946075  5.010053994260714738 
< 0  0  0 >:  0.426119256594630791  -3.340035996173810862 
< 1  -3  2 >:  -1.065298141486576977  8.350089990434526044 
< 1  -2  1 >:  0.825176392144644999  -6.467951894457233841 
< 2  -3  1 >:  0.673753702848379099  -5.281060607429339804 
ctilde_basis_func: rank=3 ndens=2 mu0=0 mu=( 0  0  0 )
n=( 1  2  2 )
l=( 2  4  4 )
num_ms=18
< -2  -2  4 >:  -0.086950159920712547  -2.631345197820035953 
< -2  -1  3 >:  0.130425239881068827  3.947017796730053707 
< -2  0  2 >:  -0.311775956170309121  -9.435177184407528728 
< -2  1  1 >:  0.164320356862500738  4.972775004997052939 
< -1  -3  4 >:  0.162668854074254826  4.922796098287737898 
< -1  -2  3 >:  -0.153707619262976519  -4.651605082553011528 
< -1  -1  2 >:  0.104572834762020950  3.164654634613545348 
< -1  0  1 >:  -0.073486297606315143  -2.223892589597053160 
< 0  -4  4 >:  -0.187833813377077913  -5.684355305024129557 
< 0  -3  3 >:  0.046958453344269478  1.421088826256032167 
< 0  -2  2 >:  0.053666803822022255  1.624101515721179556 
< 0  -1  1 >:  -0.114041958121797293  -3.451215720907506501 
< 0  0  0 >:  0.067083504777527836  2.030126894651474778 
< 1  -4  3 >:  0.162668854074254826  4.922796098287737898 
< 1  -3  2 >:  -0.153707619262976519  -4.651605082553011528 
< 1  -2  1 >:  0.104572834762020950  3.164654634613545348 
< 2  -4  2 >:  -0.086950159920712547  -2.631345197820035953 
< 2  -3  1 >:  0.130425239881068827  3.947017796730053707 
ctilde_basis_func: rank=3 ndens=2 mu0=0 mu=( 0  0  0 )
n=( 1  2  2 )
l=( 3  2  1 )
num_ms=8
< 0  0  0 >:  13.986122245377941908  0.058547993823465878 
< 0  1  -1 >:  16.149782886575930974  0.067605399988981130 
< 1  -2  1 >:  -9.324081496918624978  -0.039031995882310579 
< 1  -1  0 >:  -26.372485019228701475  -0.110399155886508837 
< 1  0  -1 >:  -22.839241987576595960  -0.095608473554075007 
< 2  -2  0 >:  20.849280054858045474  0.087278196090338336 
< 2  -1  -1 >:  29.485334619295116454  0.123430008610414935 
< 3  -2  -1 >:  -36.112012356246566469  -0.151170270021425357 
ctilde_basis_func: rank=3 ndens=2 mu0=0 mu=( 0  0  0 )
n=( 1  2  2 )
l=( 4  2  2 )
num_ms=9
< 0  -2  2 >:  0.990124078194796975  0.831498876903574824 
< 0  -1  1 >:  3.960496312779187900  3.325995507614299296 
< 0  0  0 >:  2.970372234584390814  2.494496630710724361 
< 1  -2  1 >:  -4.427969490005766673  -3.718576023942246511 
< 1  -1  0 >:  -10.846265847125986070  -9.108613828405987434 
< 2  -2  0 >:  7.669468131054836491  6.440762605275431874 
< 2  -1  -1 >:  6.262094506540431205  5.258860645774543485 
< 3  -2  -1 >:  -11.715306083536763282  -9.838427390638550207 
< 4  -2  -2 >:  8.283972375344859529  6.956818724131989207 
ctilde_basis_func: rank=3 ndens=2 mu0=0 mu=( 0  0  0 )
n=( 1  2  2 )
l=( 4  3  1 )
num_ms=11
< 0  0  0 >:  -4.364057215846448123  12.869409351887634685 
< 0  1  -1 >:  -5.344856693567394679  15.761743101563338243 
< 1  -2  1 >:  3.779384412491813450  -11.145235430435720403 
< 1  -1  0 >:  8.450960459434799787  -24.921504047693399997 
< 1  0  -1 >:  6.900180320683918289  -20.348322846518144047 
< 2  -3  1 >:  -2.182028607923224506  6.434704675943819119 
< 2  -2  0 >:  -7.558768824983626899  22.290470860871440806 
< 2  -1  -1 >:  -8.450960459434799787  24.921504047693399997 
< 3  -3  0 >:  5.773105050193314547  -17.024628332691811750 
< 3  -2  -1 >:  9.999311264367293006  -29.487521252198835242 
< 4  -3  -1 >:  -11.546210100386629094  34.049256665383623499 
ctilde_basis_func: rank=3 ndens=2 mu0=0 mu=( 0  0  0 )
n=( 1  2  2 )
l=( 4  3  3 )
num_ms=14
< 0  -3  3 >:  0.582815478269841369  -3.148871414186245943 
< 0  -2  2 >:  1.359902782629629714  -7.347366633101239053 
< 0  -1  1 >:  0.194271826089947197  -1.049623804728749166 
< 0  0  0 >:  -0.582815478269841369  3.148871414186245943 
< 1  -3  2 >:  -2.128141228743694047  11.498052694886668590 
< 1  -2  1 >:  -2.197934809947124091  11.875137760296363254 
< 1  -1  0 >:  1.504823094167337505  -8.130351030994617645 
< 2  -3  1 >:  2.855201071914497124  -15.426256460784738778 
< 2  -2  0 >:  0.672977346533946696  -3.636003517247893058 
< 2  -1  -1 >:  -1.228682911288712543  6.638403818549317492 
< 3  -3  0 >:  -3.083969631482338603  16.662261344914142569 
< 3  -2  -1 >:  1.453797226263025877  -7.854665324594180653 
< 4  -3  -1 >:  2.518050659790268764  -13.604679418646613343 
< 4  -2  -2 >:  -1.625394711712384366  8.781782803151520156 
ctilde_basis_func: rank=3 ndens=2 mu0=0 mu=( 0  0  0 )
n=( 1  2  2 )
l=( 4  4  4 )
num_ms=25
< -4  0  4 >:  -2.005104442558621525  -6.704306194496409965 
< -4  1  3 >:  3.170348492503749949  10.600438852892239083 
< -4  2  2 >:  -1.797418645837166817  -6.009883927049928687 
< -3  -1  4 >:  1.585174246251874974  5.300219426446119542 
< -3  0  3 >:  -3.007656663837932509  -10.056459291744616280 
< -3  1  2 >:  1.198279097224777878  4.006589284699952458 
< -2  -2  4 >:  -1.797418645837167039  -6.009883927049929575 
< -2  -1  3 >:  0.599139548612389050  2.003294642349976673 
< -2  0  2 >:  1.575439204867488563  5.267669152818609035 
< -2  1  1 >:  -1.358720782501607438  -4.543045222668103733 
< -1  -3  4 >:  1.585174246251875196  5.300219426446120430 
< -1  -2  3 >:  0.599139548612389050  2.003294642349976673 
< -1  -1  2 >:  -1.358720782501607438  -4.543045222668103733 
< -1  0  1 >:  1.288995713073399552  4.309911125033406343 
< 0  -4  4 >:  -1.002552221279310762  -3.352153097248204983 
< 0  -3  3 >:  -1.503828331918966255  -5.028229645872308140 
< 0  -2  2 >:  0.787719602433744170  2.633834576409304074 
< 0  -1  1 >:  0.644497856536699665  2.154955562516702727 
< 0  0  0 >:  -0.644497856536699776  -2.154955562516703171 
< 1  -4  3 >:  1.585174246251875196  5.300219426446120430 
< 1  -3  2 >:  0.599139548612389050  2.003294642349976673 
< 1  -2  1 >:  -1.358720782501607438  -4.543045222668103733 
< 2  -4  2 >:  -1.797418645837167039  -6.009883927049929575 
< 2  -3  1 >:  0.599139548612389050  2.003294642349976673 
< 3  -4  1 >:  1.585174246251874974  5.300219426446119542 
ctilde_basis_func: rank=3 ndens=2 mu0=0 mu=( 0  0  0 )
n=( 1  2  3 )
l=( 3  2  1 )
num_ms=8
< 0  0  0 >:  -0.161300355428846687  1.895814472552589836 
< 0  1  -1 >:  -0.186253607254453835  2.189097992123651526 
< 1  -2  1 >:  0.107533570285897759  -1.263876315035059594 
< 1  -1  0 >:  0.304150867017434157  -3.574782051769423319 
< 1  0  -1 >:  0.263402377420160538  -3.095852069824979402 
< 2  -2  0 >:  -0.240452373022518928  2.826113355570333052 
< 2  -1  -1 >:  -0.340051007033240815  3.996727836251302346 
< 3  -2  -1 >:  0.416475726875506824  -4.894971919796784476 
ctilde_basis_func: rank=3 ndens=2 mu0=0 mu=( 0  0  0 )
n=( 1  2  3 )
l=( 4  3  1 )
num_ms=11
< 0  0  0 >:  -1.161670622946139764  16.145311222096758286 
< 0  1  -1 >:  -1.422750137699557271  19.773887116284075915 
< 1  -2  1 >:  1.006036270301451152  -13.982249670341774461 
< 1  -1  0 >:  2.249565488224397392  -31.265260741258231292 
< 1  0  -1 >:  1.836762529708231062  -25.527978497051204698 
< 2  -3  1 >:  -0.580835311473069993  8.072655611048380919 
< 2  -2  0 >:  -2.012072540602902304  27.964499340683548922 
< 2  -1  -1 >:  -2.249565488224397392  31.265260741258231292 
< 3  -3  0 >:  1.536745786842484751  -21.358239166704176881 
< 3  -2  -1 >:  2.661721781128595143  -36.993555396939193258 
< 4  -3  -1 >:  -3.073491573684969502  42.716478333408353762 
ctilde_basis_func: rank=3 ndens=2 mu0=0 mu=( 0  0  0 )
n=( 1  2  4 )
l=( 3  2  1 )
num_ms=8
< 0  0  0 >:  -1.935528138563046507  13.818707421865692453 
< 0  1  -1 >:  -2.234955383646939797  15.956468899733669886 
< 1  -2  1 >:  1.290352092375364190  -9.212471614577125933 
< 1  -1  0 >:  3.649666858547481407  -26.056804600624271728 
< 1  0  -1 >:  3.160704214852266603  -22.565854725587854546 
< 2  -2  0 >:  -2.885314993460402544  20.599712770981696508 
< 2  -1  -1 >:  -4.080451595470139914  29.132393181712572527 
< 3  -2  -1 >:  4.997512164513680410  -35.679749140665762752 
ctilde_basis_func: rank=3 ndens=2 mu0=0 mu=( 0  0  0 )
n=( 1  2  4 )
l=( 4  3  1 )
num_ms=11
< 0  0  0 >:  -0.705783607146255432  -7.896276605574815477 
< 0  1  -1 >:  -0.864404853164632447  -9.670924275767141864 
< 1  -2  1 >:  0.611226533363273483  6.838376135736546679 
< 1  -1  0 >:  1.366744078251822536  15.291073895219247092 
< 1  0  -1 >:  1.115941866895829637  12.485109554159720346 
< 2  -3  1 >:  -0.352891803573127771  -3.948138302787408627 
< 2  -2  0 >:  -1.222453066726546966  -13.676752271473093359 
< 2  -1  -1 >:  -1.366744078251822536  -15.291073895219247092 
< 3  -3  0 >:  0.933663951967550809  10.445792090864115309 
< 3  -2  -1 >:  1.617153402003345564  18.092642626677779560 
< 4  -3  -1 >:  -1.867327903935101618  -20.891584181728230618 
ctilde_basis_func: rank=3 ndens=2 mu0=0 mu=( 0  0  0 )
n=( 1  3  1 )
l=( 2  1  1 )
num_ms=5
< 0  0  0 >:  -0.796250707706340988  1.030877954248925477 
< 0  1  -1 >:  -0.796250707706340988  1.030877954248925477 
< 1  -1  0 >:  1.379146681310057687  -1.785532993161803361 
< 1  0  -1 >:  1.379146681310057687  -1.785532993161803361 
< 2  -1  -1 >:  -1.950407941210528628  2.525124974994049420 
ctilde_basis_func: rank=3 ndens=2 mu0=0 mu=( 0  0  0 )
n=( 1  3  1 )
l=( 3  2  1 )
num_ms=8
< 0  0  0 >:  -1.476279516012791282  -2.111088228917651577 
< 0  1  -1 >:  -1.704660751938230412  -2.437674714497311879 
< 1  -2  1 >:  0.984186344008527336  1.407392152611767200 
< 1  -1  0 >:  2.783699351198503535  3.980706139602051774 
< 1  0  -1 >:  2.410754354636164276  3.447392641896061427 
< 2  -2  0 >:  -2.200707567730060266  -3.147024524239669940 
< 2  -1  -1 >:  -3.112270489100958049  -4.450564763300478788 
< 3  -2  -1 >:  3.811737319909790145  5.450806368648382083 
ctilde_basis_func: rank=3 ndens=2 mu0=0 mu=( 0  0  0 )
n=( 1  3  1 )
l=( 4  2  2 )
num_ms=13
< 0  0  0 >:  3.727547083783643966  -34.435523948991821896 
< 0  1  -1 >:  4.970062778378191659  -45.914031931989093493 
< 0  2  -2 >:  1.242515694594547915  -11.478507982997273373 
< 1  -2  1 >:  -2.778349556223777217  25.666724130255904157 
< 1  -1  0 >:  -6.805538739836337392  62.870377487907326497 
< 1  0  -1 >:  -6.805538739836337392  62.870377487907326497 
< 1  1  -2 >:  -2.778349556223777217  25.666724130255904157 
< 2  -2  0 >:  4.812242592566025046  -44.456070257457319883 
< 2  -1  -1 >:  7.858359246849870416  -72.596458733393347984 
< 2  0  -2 >:  4.812242592566025046  -44.456070257457319883 
< 3  -2  -1 >:  -7.350821980974782122  67.907769018357726054 
< 3  -1  -2 >:  -7.350821980974782122  67.907769018357726054 
< 4  -2  -2 >:  10.395632140084797967  -96.036087936260969400 
ctilde_basis_func: rank=3 ndens=2 mu0=0 mu=( 0  0  0 )
n=( 1  3  1 )
l=( 4  3  1 )
num_ms=11
< 0  0  0 >:  -1.208788476048269667  -1.677945848259581485 
< 0  1  -1 >:  -1.480457486637373199  -2.055055572128732244 
< 1  -2  1 >:  1.046841528059679005  1.453143730767426645 
< 1  -1  0 >:  2.340808818411195702  3.249328163073618381 
< 1  0  -1 >:  1.911262396838211641  2.653065335461777696 
< 2  -3  1 >:  -0.604394238024134944  -0.838972924129790965 
< 2  -2  0 >:  -2.093683056119358010  -2.906287461534853289 
< 2  -1  -1 >:  -2.340808818411195702  -3.249328163073618381 
< 3  -3  0 >:  1.599076847652239453  2.219713713964087898 
< 3  -2  -1 >:  2.769682345340755525  3.844656930843209253 
< 4  -3  -1 >:  -3.198153695304478905  -4.439427427928175796 
ctilde_basis_func: rank=3 ndens=2 mu0=0 mu=( 0  0  0 )
n=( 1  3  1 )
l=( 4  3  3 )
num_ms=22
< 0  0  0 >:  -2.816817960216312144  -5.813707820538660975 
< 0  1  -1 >:  0.938939320072104455  1.937902606846221065 
< 0  2  -2 >:  6.572575240504727745  13.565318247923540795 
< 0  3  -3 >:  2.816817960216312144  5.813707820538660975 
< 1  -3  2 >:  -5.142782457320546285  -10.614329720177401839 
< 1  -2  1 >:  -5.311442882765367912  -10.962432596640402593 
< 1  -1  0 >:  3.636496349738574274  7.505464522887351109 
< 1  0  -1 >:  3.636496349738574274  7.505464522887351109 
< 1  1  -2 >:  -5.311442882765367912  -10.962432596640402593 
< 1  2  -3 >:  -5.142782457320547174  -10.614329720177405392 
< 2  -3  1 >:  6.899766700837290934  14.240617673947795652 
< 2  -2  0 >:  1.626290607589060189  3.356545775177828261 
< 2  -1  -1 >:  -5.938373672235403689  -12.256372242423735131 
< 2  0  -2 >:  1.626290607589060189  3.356545775177828261 
< 2  1  -3 >:  6.899766700837291822  14.240617673947797428 
< 3  -3  0 >:  -7.452599811272593300  -15.381625088336624785 
< 3  -2  -1 >:  3.513189242680289315  7.250967603754635782 
< 3  -1  -2 >:  3.513189242680289315  7.250967603754635782 
< 3  0  -3 >:  -7.452599811272594188  -15.381625088336626561 
< 4  -3  -1 >:  6.085022264926688962  12.559044293738987008 
< 4  -2  -2 >:  -7.855729964454132741  -16.213656464644127908 
< 4  -1  -3 >:  6.085022264926689850  12.559044293738988785 
ctilde_basis_func: rank=3 ndens=2 mu0=0 mu=( 0  0  0 )
n=( 1  3  2 )
l=( 2  1  1 )
num_ms=5
< 0  0  0 >:  -1.782288942880589477  1.269267825258118210 
< 0  1  -1 >:  -1.782288942880589477  1.269267825258118210 
< 1  -1  0 >:  3.087015002837405486  -2.198436361759515734 
< 1  0  -1 >:  3.087015002837405486  -2.198436361759515734 
< 2  -1  -1 >:  -4.365698484261877788  3.109058518814471928 
ctilde_basis_func: rank=3 ndens=2 mu0=0 mu=( 0  0  0 )
n=( 1  3  2 )
l=( 3  2  1 )
num_ms=8
< 0  0  0 >:  -4.509689541440335070  -9.193210361289601451 
< 0  1  -1 >:  -5.207340941424432934  -10.615404953614811845 
< 1  -2  1 >:  3.006459694293555973  6.128806907526398895 
< 1  -1  0 >:  8.503552148796032384  17.334883699579481942 
< 1  0  -1 >:  7.364292183263114744  15.012449655484605415 
< 2  -2  0 >:  -6.722648248053627817  -13.704428866199297232 
< 2  -1  -1 >:  -9.507260327461168004  -19.380989167156386088 
< 3  -2  -1 >:  11.643968327042784949  23.736767084970725961 
ctilde_basis_func: rank=3 ndens=2 mu0=0 mu=( 0  0  0 )
n=( 1  3  2 )
l=( 4  2  2 )
num_ms=13
< 0  0  0 >:  0.001308769244220417  15.183583982067995422 
< 0  1  -1 >:  0.001745025658960556  20.244778642757324860 
< 0  2  -2 >:  0.000436256414740139  5.061194660689331215 
< 1  -2  1 >:  -0.000975498998979292  -11.317175308660328170 
< 1  -1  0 >:  -0.002389474792095034  -27.721304835842524028 
< 1  0  -1 >:  -0.002389474792095034  -27.721304835842524028 
< 1  1  -2 >:  -0.000975498998979292  -11.317175308660328170 
< 2  -2  0 >:  0.001689613828964714  19.601922632763677967 
< 2  -1  -1 >:  0.002759127828875785  32.009805618522705117 
< 2  0  -2 >:  0.001689613828964714  19.601922632763677967 
< 3  -2  -1 >:  -0.002580927755491657  -29.942431410435876415 
< 3  -1  -2 >:  -0.002580927755491657  -29.942431410435876415 
< 4  -2  -2 >:  0.003649983035321453  42.344992591064574583 
ctilde_basis_func: rank=3 ndens=2 mu0=0 mu=( 0  0  0 )
n=( 1  3  2 )
l=( 4  3  1 )
num_ms=11
< 0  0  0 >:  -3.628487074457424022  -3.957342991207442928 
< 0  1  -1 >:  -4.443970935352401952  -4.846735532818766679 
< 1  -2  1 >:  3.142361983783607648  3.427159561873944327 
< 1  -1  0 >:  7.026535005651237675  7.663361750088535373 
< 1  0  -1 >:  5.737141807883215705  6.257108667359603693 
< 2  -3  1 >:  -1.814243537228712455  -1.978671495603721908 
< 2  -2  0 >:  -6.284723967567215297  -6.854319123747888653 
< 2  -1  -1 >:  -7.026535005651237675  -7.663361750088535373 
< 3  -3  0 >:  4.800037217213326990  5.235072703659681359 
< 3  -2  -1 >:  8.313908338435007650  9.067411904055536098 
< 4  -3  -1 >:  -9.600074434426653980  -10.470145407319362718 
ctilde_basis_func: rank=3 ndens=2 mu0=0 mu=( 0  0  0 )
n=( 1  3  2 )
l=( 4  3  3 )
num_ms=22
< 0  0  0 >:  0.295108718168752837  -12.732003853372146907 
< 0  1  -1 >:  -0.098369572722917645  4.244001284457383782 
< 0  2  -2 >:  -0.688587009060423139  29.708008991201673155 
< 0  3  -3 >:  -0.295108718168752837  12.732003853372146907 
< 1  -3  2 >:  0.538792339524868602  -23.245352375782076138 
< 1  -2  1 >:  0.556462335478386194  -24.007696700833864867 
< 1  -1  0 >:  -0.380983716929399308  16.436946295986327726 
< 1  0  -1 >:  -0.380983716929399308  16.436946295986327726 
< 1  1  -2 >:  0.556462335478386194  -24.007696700833864867 
< 1  2  -3 >:  0.538792339524868713  -23.245352375782079690 
< 2  -3  1 >:  -0.722865778160251771  31.186912843910974402 
< 2  -2  0 >:  -0.170381097874934828  7.350825852067761623 
< 2  -1  -1 >:  0.622143804523982213  -26.841420903130973841 
< 2  0  -2 >:  -0.170381097874934828  7.350825852067761623 
< 2  1  -3 >:  -0.722865778160251882  31.186912843910977955 
< 3  -3  0 >:  0.780784278001568466  -33.685715887538776769 
< 3  -2  -1 >:  -0.368065238412500995  15.879598755468057547 
< 3  -1  -2 >:  -0.368065238412500995  15.879598755468057547 
< 3  0  -3 >:  0.780784278001568577  -33.685715887538783875 
< 4  -3  -1 >:  -0.637507693430403810  27.504271848278190049 
< 4  -2  -2 >:  0.823018893245019090  -35.507862272647635393 
< 4  -1  -3 >:  -0.637507693430403921  27.504271848278197155 
ctilde_basis_func: rank=3 ndens=2 mu0=0 mu=( 0  0  0 )
n=( 1  3  3 )
l=( 2  1  1 )
num_ms=4
< 0  -1  1 >:  1.661539057689806143  -20.978288582945360474 
< 0  0  0 >:  1.661539057689806143  -20.978288582945360474 
< 1  -1  0 >:  -5.755740133357719834  72.670923363006934892 
< 2  -1  -1 >:  4.069922879044807651  -51.386102705070115348 
ctilde_basis_func: rank=3 ndens=2 mu0=0 mu=( 0  0  0 )
n=( 1  3  3 )
l=( 2  2  2 )
num_ms=8
< -2  0  2 >:  0.000000000000000000  0.000000000000000000 
< -2  1  1 >:  0.000000000000000000  0.000000000000000000 
< -1  -1  2 >:  0.000000000000000000  0.000000000000000000 
< -1  0  1 >:  0.000000000000000000  0.000000000000000000 
< 0  -2  2 >:  0.000000000000000000  0.000000000000000000 
< 0  -1  1 >:  0.000000000000000000  0.000000000000000000 
< 0  0  0 >:  0.000000000000000000  0.000000000000000000 
< 1  -2  1 >:  0.000000000000000000  0.000000000000000000 
ctilde_basis_func: rank=3 ndens=2 mu0=0 mu=( 0  0  0 )
n=( 1  3  3 )
l=( 2  3  3 )
num_ms=12
< -2  -1  3 >:  0.000000000000000000  0.000000000000000000 
< -2  0  2 >:  0.000000000000000000  0.000000000000000000 
< -2  1  1 >:  0.000000000000000000  0.000000000000000000 
< -1  -2  3 >:  0.000000000000000000  0.000000000000000000 
< -1  -1  2 >:  0.000000000000000000  0.000000000000000000 
< -1  0  1 >:  0.000000000000000000  0.000000000000000000 
< 0  -3  3 >:  0.000000000000000000  0.000000000000000000 
< 0  -1  1 >:  0.000000000000000000  0.000000000000000000 
< 0  0  0 >:  0.000000000000000000  0.000000000000000000 
< 1  -3  2 >:  0.000000000000000000  0.000000000000000000 
< 1  -2  1 >:  0.000000000000000000  0.000000000000000000 
< 2  -3  1 >:  0.000000000000000000  0.000000000000000000 
ctilde_basis_func: rank=3 ndens=2 mu0=0 mu=( 0  0  0 )
n=( 1  3  3 )
l=( 2  4  4 )
num_ms=18
< -2  -2  4 >:  0.000000000000000000  0.000000000000000000 
< -2  -1  3 >:  0.000000000000000000  0.000000000000000000 
< -2  0  2 >:  0.000000000000000000  0.000000000000000000 
< -2  1  1 >:  0.000000000000000000  0.000000000000000000 
< -1  -3  4 >:  0.000000000000000000  0.000000000000000000 
< -1  -2  3 >:  0.000000000000000000  0.000000000000000000 
< -1  -1  2 >:  0.000000000000000000  0.000000000000000000 
< -1  0  1 >:  0.000000000000000000  0.000000000000000000 
< 0  -4  4 >:  0.000000000000000000  0.000000000000000000 
< 0  -3  3 >:  0.000000000000000000  0.000000000000000000 
< 0  -2  2 >:  0.000000000000000000  0.000000000000000000 
< 0  -1  1 >:  0.000000000000000000  0.000000000000000000 
< 0  0  0 >:  0.000000000000000000  0.000000000000000000 
< 1  -4  3 >:  0.000000000000000000  0.000000000000000000 
< 1  -3  2 >:  0.000000000000000000  0.000000000000000000 
< 1  -2  1 >:  0.000000000000000000  0.000000000000000000 
< 2  -4  2 >:  0.000000000000000000  0.000000000000000000 
< 2  -3  1 >:  0.000000000000000000  0.000000000000000000 
ctilde_basis_func: rank=3 ndens=2 mu0=0 mu=( 0  0  0 )
n=( 1  3  3 )
l=( 3  2  1 )
num_ms=8
< 0  0  0 >:  2.029929021551190260  1.510819360683371082 
< 0  1  -1 >:  2.343960134056826128  1.744543929174884767 
< 1  -2  1 >:  -1.353286014367459877  -1.007212907122247092 
< 1  -1  0 >:  -3.827670870576585838  -2.848828306899028995 
< 1  0  -1 >:  -3.314860211245021393  -2.467157684794770489 
< 2  -2  0 >:  3.026039521125397425  2.252196528140526954 
< 2  -1  -1 >:  4.279466131052523714  3.185086875225931813 
< 3  -2  -1 >:  -5.241254196300583423  -3.900918815369621484 
ctilde_basis_func: rank=3 ndens=2 mu0=0 mu=( 0  0  0 )
n=( 1  3  3 )
l=( 4  2  2 )
num_ms=9
< 0  -2  2 >:  0.000223794420572390  5.679880868691665086 
< 0  -1  1 >:  0.000895177682289560  22.719523474766660343 
< 0  0  0 >:  0.000671383261717170  17.039642606074995257 
< 1  -2  1 >:  -0.001000839074770083  -25.401199452990240957 
< 1  -1  0 >:  -0.002451545047825924  -62.219977514489272608 
< 2  -2  0 >:  0.001733504127702010  43.996168025769861742 
< 2  -1  -1 >:  0.001415400193292791  35.922720766962839889 
< 3  -2  -1 >:  -0.002647971294237619  -67.205256755362086096 
< 4  -2  -2 >:  0.001872398458542739  47.521292783099568169 
ctilde_basis_func: rank=3 ndens=2 mu0=0 mu=( 0  0  0 )
n=( 1  3  3 )
l=( 4  3  1 )
num_ms=11
< 0  0  0 >:  2.893128593497379164  -35.493283102302790155 
< 0  1  -1 >:  3.543344407162277054  -43.470216448395099462 
< 1  -2  1 >:  -2.505522858383872897  30.738084830307169426 
< 1  -1  0 >:  -5.602519430525918942  68.732447178721926662 
< 1  0  -1 >:  -4.574437959605563542  56.119808120221975400 
< 2  -3  1 >:  1.446564296748690026  -17.746641551151398630 
< 2  -2  0 >:  5.011045716767745795  -61.476169660614338852 
< 2  -1  -1 >:  5.602519430525918942  -68.732447178721926662 
< 3  -3  0 >:  -3.827249384662073872  46.953200150952156378 
< 3  -2  -1 >:  -6.628990387471432655  81.325328239399794938 
< 4  -3  -1 >:  7.654498769324147744  -93.906400301904312755 
ctilde_basis_func: rank=3 ndens=2 mu0=0 mu=( 0  0  0 )
n=( 1  3  3 )
l=( 4  3  3 )
num_ms=14
< 0  -3  3 >:  -2.313577566761495508  -0.817973660066123043 
< 0  -2  2 >:  -5.398347655776822407  -1.908605206820953359 
< 0  -1  1 >:  -0.771192522253832169  -0.272657886688707773 
< 0  0  0 >:  2.313577566761495508  0.817973660066123043 
< 1  -3  2 >:  8.447990812354571943  2.986817500421855787 
< 1  -2  1 >:  8.725047393376671678  3.084771849945255884 
< 1  -1  0 >:  -5.973631590817566561  -2.111998908714947554 
< 2  -3  1 >:  -11.334169037831092197  -4.007236180397564240 
< 2  -2  0 >:  -2.671489261921657477  -0.944514625658399054 
< 2  -1  -1 >:  4.877449769624395692  1.724439887888842948 
< 3  -3  0 >:  12.242301761017705175  4.328309767072493486 
< 3  -2  -1 >:  -5.771076395031752959  -2.040384791581950186 
< 4  -3  -1 >:  -9.995797530556435717  -3.534050126010773507 
< 4  -2  -2 >:  6.452259561317714720  2.281219547116990931 
ctilde_basis_func: rank=3 ndens=2 mu0=0 mu=( 0  0  0 )
n=( 1  3  3 )
l=( 4  4  4 )
num_ms=25
< -4  0  4 >:  0.000000000000000000  0.000000000000000000 
< -4  1  3 >:  0.000000000000000000  0.000000000000000000 
< -4  2  2 >:  0.000000000000000000  0.000000000000000000 
< -3  -1  4 >:  0.000000000000000000  0.000000000000000000 
< -3  0  3 >:  0.000000000000000000  0.000000000000000000 
< -3  1  2 >:  0.000000000000000000  0.000000000000000000 
< -2  -2  4 >:  0.000000000000000000  0.000000000000000000 
< -2  -1  3 >:  0.000000000000000000  0.000000000000000000 
< -2  0  2 >:  0.000000000000000000  0.000000000000000000 
< -2  1  1 >:  0.000000000000000000  0.000000000000000000 
< -1  -3  4 >:  0.000000000000000000  0.000000000000000000 
< -1  -2  3 >:  0.000000000000000000  0.000000000000000000 
< -1  -1  2 >:  0.000000000000000000  0.000000000000000000 
< -1  0  1 >:  0.000000000000000000  0.000000000000000000 
< 0  -4  4 >:  0.000000000000000000  0.000000000000000000 
< 0  -3  3 >:  0.000000000000000000  0.000000000000000000 
< 0  -2  2 >:  0.000000000000000000  0.000000000000000000 
< 0  -1  1 >:  0.000000000000000000  0.000000000000000000 
< 0  0  0 >:  0.000000000000000000  0.000000000000000000 
< 1  -4  3 >:  0.000000000000000000  0.000000000000000000 
< 1  -3  2 >:  0.000000000000000000  0.000000000000000000 
< 1  -2  1 >:  0.000000000000000000  0.000000000000000000 
< 2  -4  2 >:  0.000000000000000000  0.000000000000000000 
< 2  -3  1 >:  0.000000000000000000  0.000000000000000000 
< 3  -4  1 >:  0.000000000000000000  0.000000000000000000 
ctilde_basis_func: rank=3 ndens=2 mu0=0 mu=( 0  0  0 )
n=( 1  3  4 )
l=( 3  2  1 )
num_ms=8
< 0  0  0 >:  -6.492765304849545949  13.334282602962096220 
< 0  1  -1 >:  -7.497199593079893809  15.397103300541417070 
< 1  -2  1 >:  4.328510203233030040  -8.889521735308061778 
< 1  -1  0 >:  12.242875668564945357  -25.143364402166145766 
< 1  0  -1 >:  10.602641344351635411  -21.774792308885217551 
< 2  -2  0 >:  -9.678843055730485645  19.877574887610723664 
< 2  -1  -1 >:  -13.687951117494703723  28.111135993145936141 
< 3  -2  -1 >:  16.764247931010405779  -34.428969636596988835 
ctilde_basis_func: rank=3 ndens=2 mu0=0 mu=( 0  0  0 )
n=( 1  3  4 )
l=( 4  3  1 )
num_ms=11
< 0  0  0 >:  -1.334588526639768791  -4.471176137291807073 
< 0  1  -1 >:  -1.634530453420114160  -5.476050043236597276 
< 1  -2  1 >:  1.155787567669284810  3.872152119689484362 
< 1  -1  0 >:  2.584419568857659222  8.658395358845588419 
< 1  0  -1 >:  2.110169741654986275  7.069550206817914351 
< 2  -3  1 >:  -0.667294263319884506  -2.235588068645903981 
< 2  -2  0 >:  -2.311575135338569620  -7.744304239378968724 
< 2  -1  -1 >:  -2.584419568857659222  -8.658395358845588419 
< 3  -3  0 >:  1.765494672044464863  5.914810063620256742 
< 3  -2  -1 >:  3.057926472473164736  10.244751547309986606 
< 4  -3  -1 >:  -3.530989344088929727  -11.829620127240513483 
ctilde_basis_func: rank=3 ndens=2 mu0=0 mu=( 0  0  0 )
n=( 1  4  1 )
l=( 2  1  1 )
num_ms=5
< 0  0  0 >:  0.575267145270809910  1.332577134444604017 
< 0  1  -1 >:  0.575267145270809910  1.332577134444604017 
< 1  -1  0 >:  -0.996391923534148849  -2.308091301862596811 
< 1  0  -1 >:  -0.996391923534148849  -2.308091301862596811 
< 2  -1  -1 >:  1.409110971701009296  3.264134022289457704 
ctilde_basis_func: rank=3 ndens=2 mu0=0 mu=( 0  0  0 )
n=( 1  4  1 )
l=( 3  2  1 )
num_ms=8
< 0  0  0 >:  1.018216967652742388  0.394281080466440559 
< 0  1  -1 >:  1.175735680735510158  0.455276575887351764 
< 1  -2  1 >:  -0.678811311768494741  -0.262854053644293650 
< 1  -1  0 >:  -1.919968326790553181  -0.743463535177010248 
< 1  0  -1 >:  -1.662741345462122045  -0.643858308250676581 
< 2  -2  0 >:  1.517868237010157495  0.587759532110016969 
< 2  -1  -1 >:  2.146589846675104329  0.831217501724050734 
< 3  -2  -1 >:  -2.629024905696591308  -1.018029372247460485 
ctilde_basis_func: rank=3 ndens=2 mu0=0 mu=( 0  0  0 )
n=( 1  4  1 )
l=( 4  2  2 )
num_ms=13
< 0  0  0 >:  1.041315440768480149  -6.592303140660325411 
< 0  1  -1 >:  1.388420587691306718  -8.789737520880434474 
< 0  2  -2 >:  0.347105146922826679  -2.197434380220108618 
< 1  -2  1 >:  -0.776150703859492364  4.913612650267282334 
< 1  -1  0 >:  -1.901173187957770905  12.035843786839375724 
< 1  0  -1 >:  -1.901173187957770905  12.035843786839375724 
< 1  1  -2 >:  -0.776150703859492364  4.913612650267282334 
< 2  -2  0 >:  1.344332453414986084  -8.510626758976096440 
< 2  -1  -1 >:  2.195285703687035461  -13.897795300511992522 
< 2  0  -2 >:  1.344332453414986084  -8.510626758976096440 
< 3  -2  -1 >:  -2.053501742319956858  13.000197111508219550 
< 3  -1  -2 >:  -2.053501742319956858  13.000197111508219550 
< 4  -2  -2 >:  2.904090014345663384  -18.385055068618456175 
ctilde_basis_func: rank=3 ndens=2 mu0=0 mu=( 0  0  0 )
n=( 1  4  1 )
l=( 4  3  1 )
num_ms=11
< 0  0  0 >:  0.518673531109317354  -1.581675298167471766 
< 0  1  -1 >:  0.635242747152702347  -1.937148709637373845 
< 1  -2  1 >:  -0.449184454211247197  1.369770988751357166 
< 1  -1  0 >:  -1.004406974052490353  3.062901044455134336 
< 1  0  -1 >:  -0.820094860173821605  2.500848230517577875 
< 2  -3  1 >:  0.259336765554658732  -0.790837649083735994 
< 2  -2  0 >:  0.898368908422494394  -2.739541977502714332 
< 2  -1  -1 >:  1.004406974052490353  -3.062901044455134336 
< 3  -3  0 >:  -0.686140587473488717  2.092359746902533235 
< 3  -2  -1 >:  -1.188430358639239737  3.624073389347143959 
< 4  -3  -1 >:  1.372281174946977433  -4.184719493805066470 
ctilde_basis_func: rank=3 ndens=2 mu0=0 mu=( 0  0  0 )
n=( 1  4  1 )
l=( 4  3  3 )
num_ms=22
< 0  0  0 >:  1.512240626897316087  -4.183183122431755052 
< 0  1  -1 >:  -0.504080208965772214  1.394394374143919091 
< 0  2  -2 >:  -3.528561462760404055  9.760760619007427863 
< 0  3  -3 >:  -1.512240626897316087  4.183183122431755052 
< 1  -3  2 >:  2.760961012424712369  -7.637412527769225079 
< 1  -2  1 >:  2.851508272173034708  -7.887885740844293281 
< 1  -1  0 >:  -1.952294254477189739  5.400466189104710324 
< 1  0  -1 >:  -1.952294254477189739  5.400466189104710324 
< 1  1  -2 >:  2.851508272173034708  -7.887885740844293281 
< 1  2  -3 >:  2.760961012424712813  -7.637412527769226855 
< 2  -3  1 >:  -3.704217904204978762  10.246664150580292230 
< 2  -2  0 >:  -0.873092533018653860  2.415161901805472855 
< 2  -1  -1 >:  3.188083167490938230  -8.818924357639563283 
< 2  0  -2 >:  -0.873092533018653860  2.415161901805472855 
< 2  1  -3 >:  -3.704217904204979206  10.246664150580294006 
< 3  -3  0 >:  4.001012621258712265  -11.067662230597083095 
< 3  -2  -1 >:  -1.886095437403332520  5.217346010091618247 
< 3  -1  -2 >:  -1.886095437403332520  5.217346010091618247 
< 3  0  -3 >:  4.001012621258713153  -11.067662230597084871 
< 4  -3  -1 >:  -3.266813125506417670  9.036708370145449365 
< 4  -2  -2 >:  4.217437610086051336  -11.666340340702163303 
< 4  -1  -3 >:  -3.266813125506418114  9.036708370145451141 
ctilde_basis_func: rank=3 ndens=2 mu0=0 mu=( 0  0  0 )
n=( 1  4  2 )
l=( 2  1  1 )
num_ms=5
< 0  0  0 >:  0.926423725864751524  7.015677032962397419 
< 0  1  -1 >:  0.926423725864751524  7.015677032962397419 
< 1  -1  0 >:  -1.604612962535010956  -12.151509070584944894 
< 1  0  -1 >:  -1.604612962535010956  -12.151509070584944894 
< 2  -1  -1 >:  2.269265413976683909  17.184828930920915013 
ctilde_basis_func: rank=3 ndens=2 mu0=0 mu=( 0  0  0 )
n=( 1  4  2 )
l=( 3  2  1 )
num_ms=8
< 0  0  0 >:  2.847274167149546287  -4.592468986876540704 
< 0  1  -1 >:  3.287749013720915325  -5.302926411636355475 
< 1  -2  1 >:  -1.898182778099697154  3.061645991251026544 
< 1  -1  0 >:  -5.368871657303261102  8.659642568024839449 
< 1  0  -1 >:  -4.649579244882885654  7.499470451602625154 
< 2  -2  0 >:  4.244465725550321977  -6.846048559477021733 
< 2  -1  -1 >:  6.002580994101025524  -9.681774721477195200 
< 3  -2  -1 >:  -7.351630287637855865  11.857703936097925279 
ctilde_basis_func: rank=3 ndens=2 mu0=0 mu=( 0  0  0 )
n=( 1  4  2 )
l=( 4  2  2 )
num_ms=13
< 0  0  0 >:  2.459084059379633036  0.044593147335624549 
< 0  1  -1 >:  3.278778745839510567  0.059457529780832727 
< 0  2  -2 >:  0.819694686459877642  0.014864382445208182 
< 1  -2  1 >:  -1.832893039719662998  -0.033237769591040037 
< 1  -1  0 >:  -4.489652700411994601  -0.081415575686243205 
< 1  0  -1 >:  -4.489652700411994601  -0.081415575686243205 
< 1  1  -2 >:  -1.832893039719662998  -0.033237769591040037 
< 2  -2  0 >:  3.174663869633815860  0.057569505661949162 
< 2  -1  -1 >:  5.184204390301589527  0.094010609077361709 
< 2  0  -2 >:  3.174663869633815860  0.057569505661949162 
< 3  -2  -1 >:  -4.849379162879460914  -0.087938872472356960 
< 3  -1  -2 >:  -4.849379162879460914  -0.087938872472356960 
< 4  -2  -2 >:  6.858057781233619643  0.124364346110205248 
ctilde_basis_func: rank=3 ndens=2 mu0=0 mu=( 0  0  0 )
n=( 1  4  2 )
l=( 4  3  1 )
num_ms=11
< 0  0  0 >:  0.653311465459004981  -0.606187364517208671 
< 0  1  -1 >:  0.800139866742239803  -0.742424865794835243 
< 1  -2  1 >:  -0.565784325671138122  0.524973657125040405 
< 1  -1  0 >:  -1.265132212804544354  1.173876783728257100 
< 1  0  -1 >:  -1.032976126176438525  0.958466380344557556 
< 2  -3  1 >:  0.326655732729502546  -0.303093682258604391 
< 2  -2  0 >:  1.131568651342276244  -1.049947314250080810 
< 2  -1  -1 >:  1.265132212804544354  -1.173876783728257100 
< 3  -3  0 >:  -0.864249833135845913  0.801910507211097134 
< 3  -2  -1 >:  -1.496924621424209123  1.388949741612948596 
< 4  -3  -1 >:  1.728499666271691826  -1.603821014422194269 
ctilde_basis_func: rank=3 ndens=2 mu0=0 mu=( 0  0  0 )
n=( 1  4  2 )
l=( 4  3  3 )
num_ms=22
< 0  0  0 >:  0.451017014491002899  6.628981351608700834 
< 0  1  -1 >:  -0.150339004830334355  -2.209660450536234499 
< 0  2  -2 >:  -1.052373033812339820  -15.467623153753633503 
< 0  3  -3 >:  -0.451017014491002899  -6.628981351608700834 
< 1  -3  2 >:  0.823440642184522287  12.102808731857235713 
< 1  -2  1 >:  0.850445838338932059  12.499727109551141524 
< 1  -1  0 >:  -0.582260461993281075  -8.557978125700010708 
< 1  0  -1 >:  -0.582260461993281075  -8.557978125700010708 
< 1  1  -2 >:  0.850445838338932059  12.499727109551141524 
< 1  2  -3 >:  0.823440642184522398  12.102808731857237490 
< 2  -3  1 >:  -1.104761550816403481  -16.237621825866479952 
< 2  -2  0 >:  -0.260394794725481826  -3.827244167804292552 
< 2  -1  -1 >:  0.950827352853824359  13.975119758576655116 
< 2  0  -2 >:  -0.260394794725481826  -3.827244167804292552 
< 2  1  -3 >:  -1.104761550816403703  -16.237621825866483505 
< 3  -3  0 >:  1.193278857402008342  17.538636102041440523 
< 3  -2  -1 >:  -0.562517047943663417  -8.267792347011132748 
< 3  -1  -2 >:  -0.562517047943663417  -8.267792347011132748 
< 3  0  -3 >:  1.193278857402008342  17.538636102041444076 
< 4  -3  -1 >:  -0.974308107162083270  -14.320236411452416547 
< 4  -2  -2 >:  1.257826357704539877  18.487345711769421541 
< 4  -1  -3 >:  -0.974308107162083492  -14.320236411452420100 
ctilde_basis_func: rank=3 ndens=2 mu0=0 mu=( 0  0  0 )
n=( 1  4  3 )
l=( 2  1  1 )
num_ms=5
< 0  0  0 >:  -0.098651707283858997  11.177730495338773054 
< 0  1  -1 >:  -0.098651707283858997  11.177730495338773054 
< 1  -1  0 >:  0.170869769269056448  -19.360397131238787694 
< 1  0  -1 >:  0.170869769269056448  -19.360397131238787694 
< 2  -1  -1 >:  -0.241646345099861160  27.379736195927058873 
ctilde_basis_func: rank=3 ndens=2 mu0=0 mu=( 0  0  0 )
n=( 1  4  3 )
l=( 3  2  1 )
num_ms=8
< 0  0  0 >:  5.320997931218061971  -26.041205682609106731 
< 0  1  -1 >:  6.144159175892378144  -30.069794221753550545 
< 1  -2  1 >:  -3.547331954145374056  17.360803788406066417 
< 1  -1  0 >:  -10.033369919583684293  49.103768342524134027 
< 1  0  -1 >:  -8.689153235926101004  42.525110806172001787 
< 2  -2  0 >:  7.932075388226223822  -38.819937414911848350 
< 2  -1  -1 >:  11.217648591795359891  -54.899681982643080858 
< 3  -2  -1 >:  -13.738757581874446956  67.238103949271334159 
ctilde_basis_func: rank=3 ndens=2 mu0=0 mu=( 0  0  0 )
n=( 1  4  3 )
l=( 4  2  2 )
num_ms=13
< 0  0  0 >:  -0.421970772883327627  8.531417005898275008 
< 0  1  -1 >:  -0.562627697177770170  11.375222674531032752 
< 0  2  -2 >:  -0.140656924294442542  2.843805668632758188 
< 1  -2  1 >:  0.314518444228415184  -6.358942789862088496 
< 1  -1  0 >:  0.770409703053626105  -15.576165138712232405 
< 1  0  -1 >:  0.770409703053626105  -15.576165138712232405 
< 1  1  -2 >:  0.314518444228415184  -6.358942789862088496 
< 2  -2  0 >:  -0.544761925321133322  11.014011994464917521 
< 2  -1  -1 >:  -0.889592498888621130  17.985806271555141223 
< 2  0  -2 >:  -0.544761925321133322  11.014011994464917521 
< 3  -2  -1 >:  0.832137586171324828  -16.824181223262346663 
< 3  -1  -2 >:  0.832137586171324828  -16.824181223262346663 
< 4  -2  -2 >:  -1.176820260123897510  23.792985261760378535 
ctilde_basis_func: rank=3 ndens=2 mu0=0 mu=( 0  0  0 )
n=( 1  4  3 )
l=( 4  3  1 )
num_ms=11
< 0  0  0 >:  0.285445833648771741  -26.612306496772063724 
< 0  1  -1 >:  0.349598320821429942  -32.593285897822653396 
< 1  -2  1 >:  -0.247203343344263277  23.046933479502268227 
< 1  -1  0 >:  -0.552763479982992911  51.534509933082823352 
< 1  0  -1 >:  -0.451329491467825195  42.077751160148061160 
< 2  -3  1 >:  0.142722916824385926  -13.306153248386033638 
< 2  -2  0 >:  0.494406686688526553  -46.093866959004536454 
< 2  -1  -1 >:  0.552763479982992911  -51.534509933082823352 
< 3  -3  0 >:  -0.377609344307081540  35.204772402143710508 
< 3  -2  -1 >:  -0.654038569752634746  60.976454469411528692 
< 4  -3  -1 >:  0.755218688614163081  -70.409544804287421016 
ctilde_basis_func: rank=3 ndens=2 mu0=0 mu=( 0  0  0 )
n=( 1  4  3 )
l=( 4  3  3 )
num_ms=22
< 0  0  0 >:  4.286205872065950828  -0.037085997745415260 
< 0  1  -1 >:  -1.428735290688650794  0.012361999248471757 
< 0  2  -2 >:  -10.001147034820549564  0.086533994739302261 
< 0  3  -3 >:  -4.286205872065950828  0.037085997745415260 
< 1  -3  2 >:  7.825505474138743978  -0.067709458442498899 
< 1  -2  1 >:  8.082147300531822509  -0.069930027980939044 
< 1  -1  0 >:  -5.533467986975955100  0.047877817215159706 
< 1  0  -1 >:  -5.533467986975955100  0.047877817215159706 
< 1  1  -2 >:  8.082147300531822509  -0.069930027980939044 
< 1  2  -3 >:  7.825505474138745754  -0.067709458442498913 
< 2  -3  1 >:  -10.499017319082572186  0.090841771078274750 
< 2  -2  0 >:  -2.474642114039431018  0.021411610781481353 
< 2  -1  -1 >:  9.036115384077787027  -0.078184148116921037 
< 2  0  -2 >:  -2.474642114039431018  0.021411610781481353 
< 2  1  -3 >:  -10.499017319082573962  0.090841771078274763 
< 3  -3  0 >:  11.340234805511235194  -0.098120327157070863 
< 3  -2  -1 >:  -5.345837954149801341  0.046254365803338235 
< 3  -1  -2 >:  -5.345837954149801341  0.046254365803338235 
< 3  0  -3 >:  11.340234805511235194  -0.098120327157070877 
< 4  -3  -1 >:  -9.259262945617519946  0.080114911643258263 
< 4  -2  -2 >:  11.953657062177359904  -0.103427906192405980 
< 4  -1  -3 >:  -9.259262945617519946  0.080114911643258277 
ctilde_basis_func: rank=3 ndens=2 mu0=0 mu=( 0  0  0 )
n=( 1  4  4 )
l=( 2  1  1 )
num_ms=4
< 0  -1  1 >:  -0.244674210055230684  5.608379463752766192 
< 0  0  0 >:  -0.244674210055230684  5.608379463752766192 
< 1  -1  0 >:  0.847576326234878774  -19.427996358691370204 
< 2  -1  -1 >:  -0.599326967853864301  13.737667970098222270 
ctilde_basis_func: rank=3 ndens=2 mu0=0 mu=( 0  0  0 )
n=( 1  4  4 )
l=( 2  2  2 )
num_ms=8
< -2  0  2 >:  0.000000000000000000  0.000000000000000000 
< -2  1  1 >:  0.000000000000000000  0.000000000000000000 
< -1  -1  2 >:  0.000000000000000000  0.000000000000000000 
< -1  0  1 >:  0.000000000000000000  0.000000000000000000 
< 0  -2  2 >:  0.000000000000000000  0.000000000000000000 
< 0  -1  1 >:  0.000000000000000000  0.000000000000000000 
< 0  0  0 >:  0.000000000000000000  0.000000000000000000 
< 1  -2  1 >:  0.000000000000000000  0.000000000000000000 
ctilde_basis_func: rank=3 ndens=2 mu0=0 mu=( 0  0  0 )
n=( 1  4  4 )
l=( 2  3  3 )
num_ms=12
< -2  -1  3 >:  0.000000000000000000  0.000000000000000000 
< -2  0  2 >:  0.000000000000000000  0.000000000000000000 
< -2  1  1 >:  0.000000000000000000  0.000000000000000000 
< -1  -2  3 >:  0.000000000000000000  0.000000000000000000 
< -1  -1  2 >:  0.000000000000000000  0.000000000000000000 
< -1  0  1 >:  0.000000000000000000  0.000000000000000000 
< 0  -3  3 >:  0.000000000000000000  0.000000000000000000 
< 0  -1  1 >:  0.000000000000000000  0.000000000000000000 
< 0  0  0 >:  0.000000000000000000  0.000000000000000000 
< 1  -3  2 >:  0.000000000000000000  0.000000000000000000 
< 1  -2  1 >:  0.000000000000000000  0.000000000000000000 
< 2  -3  1 >:  0.000000000000000000  0.000000000000000000 
ctilde_basis_func: rank=3 ndens=2 mu0=0 mu=( 0  0  0 )
n=( 1  4  4 )
l=( 2  4  4 )
num_ms=18
< -2  -2  4 >:  0.000000000000000000  0.000000000000000000 
< -2  -1  3 >:  0.000000000000000000  0.000000000000000000 
< -2  0  2 >:  0.000000000000000000  0.000000000000000000 
< -2  1  1 >:  0.000000000000000000  0.000000000000000000 
< -1  -3  4 >:  0.000000000000000000  0.000000000000000000 
< -1  -2  3 >:  0.000000000000000000  0.000000000000000000 
< -1  -1  2 >:  0.000000000000000000  0.000000000000000000 
< -1  0  1 >:  0.000000000000000000  0.000000000000000000 
< 0  -4  4 >:  0.000000000000000000  0.000000000000000000 
< 0  -3  3 >:  0.000000000000000000  0.000000000000000000 
< 0  -2  2 >:  0.000000000000000000  0.000000000000000000 
< 0  -1  1 >:  0.000000000000000000  0.000000000000000000 
< 0  0  0 >:  0.000000000000000000  0.000000000000000000 
< 1  -4  3 >:  0.000000000000000000  0.000000000000000000 
< 1  -3  2 >:  0.000000000000000000  0.000000000000000000 
< 1  -2  1 >:  0.000000000000000000  0.000000000000000000 
< 2  -4  2 >:  0.000000000000000000  0.000000000000000000 
< 2  -3  1 >:  0.000000000000000000  0.000000000000000000 
ctilde_basis_func: rank=3 ndens=2 mu0=0 mu=( 0  0  0 )
n=( 1  4  4 )
l=( 3  2  1 )
num_ms=8
< 0  0  0 >:  -1.483430593610175929  15.347142874445349747 
< 0  1  -1 >:  -1.712918105089922260  17.721354139705333353 
< 1  -2  1 >:  0.988953729073450361  -10.231428582963564722 
< 1  -1  0 >:  2.797183552430241971  -28.938850128957618324 
< 1  0  -1 >:  2.422432015452590903  -25.061779367987877976 
< 2  -2  0 >:  -2.211367764810145520  22.878169818440877492 
< 2  -1  -1 >:  -3.127346284389184383  32.354618039513901806 
< 3  -2  -1 >:  3.830201322871195302  -39.626152509728441942 
ctilde_basis_func: rank=3 ndens=2 mu0=0 mu=( 0  0  0 )
n=( 1  4  4 )
l=( 4  2  2 )
num_ms=9
